{"learner":{"attributes":{"scikit_learn":"{\"_estimator_type\": \"regressor\"}"},"feature_names":[],"feature_types":[],"gradient_booster":{"model":{"cats":{"enc":[],"feature_segments":[],"sorted_idx":[]},"gbtree_model_param":{"num_parallel_tree":"1","num_trees":"500"},"iteration_indptr":[0,1,2,3,4,5,6,7,8,9,10,11,12,13,14,15,16,17,18,19,20,21,22,23,24,25,26,27,28,29,30,31,32,33,34,35,36,37,38,39,40,41,42,43,44,45,46,47,48,49,50,51,52,53,54,55,56,57,58,59,60,61,62,63,64,65,66,67,68,69,70,71,72,73,74,75,76,77,78,79,80,81,82,83,84,85,86,87,88,89,90,91,92,93,94,95,96,97,98,99,100,101,102,103,104,105,106,107,108,109,110,111,112,113,114,115,116,117,118,119,120,121,122,123,124,125,126,127,128,129,130,131,132,133,134,135,136,137,138,139,140,141,142,143,144,145,146,147,148,149,150,151,152,153,154,155,156,157,158,159,160,161,162,163,164,165,166,167,168,169,170,171,172,173,174,175,176,177,178,179,180,181,182,183,184,185,186,187,188,189,190,191,192,193,194,195,196,197,198,199,200,201,202,203,204,205,206,207,208,209,210,211,212,213,214,215,216,217,218,219,220,221,222,223,224,225,226,227,228,229,230,231,232,233,234,235,236,237,238,239,240,241,242,243,244,245,246,247,248,249,250,251,252,253,254,255,256,257,258,259,260,261,262,263,264,265,266,267,268,269,270,271,272,273,274,275,276,277,278,279,280,281,282,283,284,285,286,287,288,289,290,291,292,293,294,295,296,297,298,299,300,301,302,303,304,305,306,307,308,309,310,311,312,313,314,315,316,317,318,319,320,321,322,323,324,325,326,327,328,329,330,331,332,333,334,335,336,337,338,339,340,341,342,343,344,345,346,347,348,349,350,351,352,353,354,355,356,357,358,359,360,361,362,363,364,365,366,367,368,369,370,371,372,373,374,375,376,377,378,379,380,381,382,383,384,385,386,387,388,389,390,391,392,393,394,395,396,397,398,399,400,401,402,403,404,405,406,407,408,409,410,411,412,413,414,415,416,417,418,419,420,421,422,423,424,425,426,427,428,429,430,431,432,433,434,435,436,437,438,439,440,441,442,443,444,445,446,447,448,449,450,451,452,453,454,455,456,457,458,459,460,461,462,463,464,465,466,467,468,469,470,471,472,473,474,475,476,477,478,479,480,481,482,483,484,485,486,487,488,489,490,491,492,493,494,495,496,497,498,499,500],"tree_info":[0,0,0,0,0,0,0,0,0,0,0,0,0,0,0,0,0,0,0,0,0,0,0,0,0,0,0,0,0,0,0,0,0,0,0,0,0,0,0,0,0,0,0,0,0,0,0,0,0,0,0,0,0,0,0,0,0,0,0,0,0,0,0,0,0,0,0,0,0,0,0,0,0,0,0,0,0,0,0,0,0,0,0,0,0,0,0,0,0,0,0,0,0,0,0,0,0,0,0,0,0,0,0,0,0,0,0,0,0,0,0,0,0,0,0,0,0,0,0,0,0,0,0,0,0,0,0,0,0,0,0,0,0,0,0,0,0,0,0,0,0,0,0,0,0,0,0,0,0,0,0,0,0,0,0,0,0,0,0,0,0,0,0,0,0,0,0,0,0,0,0,0,0,0,0,0,0,0,0,0,0,0,0,0,0,0,0,0,0,0,0,0,0,0,0,0,0,0,0,0,0,0,0,0,0,0,0,0,0,0,0,0,0,0,0,0,0,0,0,0,0,0,0,0,0,0,0,0,0,0,0,0,0,0,0,0,0,0,0,0,0,0,0,0,0,0,0,0,0,0,0,0,0,0,0,0,0,0,0,0,0,0,0,0,0,0,0,0,0,0,0,0,0,0,0,0,0,0,0,0,0,0,0,0,0,0,0,0,0,0,0,0,0,0,0,0,0,0,0,0,0,0,0,0,0,0,0,0,0,0,0,0,0,0,0,0,0,0,0,0,0,0,0,0,0,0,0,0,0,0,0,0,0,0,0,0,0,0,0,0,0,0,0,0,0,0,0,0,0,0,0,0,0,0,0,0,0,0,0,0,0,0,0,0,0,0,0,0,0,0,0,0,0,0,0,0,0,0,0,0,0,0,0,0,0,0,0,0,0,0,0,0,0,0,0,0,0,0,0,0,0,0,0,0,0,0,0,0,0,0,0,0,0,0,0,0,0,0,0,0,0,0,0,0,0,0,0,0,0,0,0,0,0,0,0,0,0,0,0,0,0,0,0,0,0,0,0,0,0,0,0,0,0,0,0,0,0,0,0,0,0,0,0,0,0,0,0,0,0,0,0,0,0,0,0,0,0,0,0,0,0,0,0,0,0,0,0,0,0,0,0,0,0,0,0,0,0,0,0,0],"trees":[{"base_weights":[1.0055617E-7,-6.1870563E-1,1.5759715E0,-1.1037652E0,1.0912492E0,-3.3069307E-1,1.8725722E0,-1.4596859E0,7.2564554E-1,-4.9892643E-1,1.5725021E0,-4.2240524E-1,-1.5226874E-1,-1.3425237E-1,2.1022124E0,-1.7064799E0,4.1931096E-1,-6.332511E-1,1.2257266E0,-7.1201146E-1,-3.9397532E-1,-3.505395E-1,1.7858915E0,-5.9127253E-1,-3.3181128E-1,-3.1846294E-1,-6.1390005E-2,-2.739452E-1,3.68378E-3,-3.6755748E-2,2.2709665E0,-1.8608595E0,1.5024756E-1,-7.495955E-1,9.209836E-1,-7.180304E-1,-4.6252596E-1,-4.7232747E-1,1.5986245E0,-8.950471E-1,-6.096967E-1,-4.9306184E-1,-2.0491824E-1,-4.4697595E-1,-1.5793581E-1,-2.1288434E-1,1.9517198E0,-7.9333514E-1,-4.949382E-1,-4.968703E-1,-2.4877492E-1,-4.0344703E-1,-1.4002144E-1,-1.5362892E-1,1.21897936E-1,-3.595624E-1,-1.0353114E-1,-8.7439224E-2,1.8430816E-1,-1.5006338E-1,8.103666E-2,5.591209E-2,2.392855E0,-9.762459E-2,-5.3865532E-3,-4.015301E-2,3.249419E-2,-4.615329E-2,-3.310104E-2,-2.8217493E-2,6.651151E-2,-4.141586E-2,-3.0565983E-2,-2.9612485E-2,-1.6592914E-2,-3.2806624E-2,-1.8556606E-2,-1.6485093E-2,8.7948725E-2,-4.8620574E-2,-3.7342094E-2,-3.7901875E-2,-2.6589265E-2,-2.8667761E-2,-1.6491964E-2,-1.4845132E-2,-1.138016E-3,-3.0858377E-2,-1.8111937E-2,-1.302994E-2,1.5546837E-3,-1.5751876E-2,-7.681641E-4,-5.4687117E-3,1.0362897E-1,-4.7044504E-2,-3.588439E-2,-2.9888034E-2,-1.3536222E-2,-3.2799E-2,-2.046102E-2,-1.719085E-2,-3.7782658E-3,-2.4523718E-2,-1.1234865E-2,-1.7154869E-2,-1.4261568E-3,-1.1777385E-2,7.512401E-4,-5.1341574E-3,1.0874725E-2,-2.6354438E-2,-1.3660799E-2,-1.0615115E-2,5.380983E-3,-1.371945E-2,1.2290032E-4,-2.966166E-3,1.4672597E-2,-1.673249E-2,-3.023766E-3,-4.3459684E-3,7.976695E-3,-4.2261197E-3,9.812932E-3,8.630775E-3,1.2389765E-1],"categories":[],"categories_nodes":[],"categories_segments":[],"categories_sizes":[],"default_left":[0,0,0,0,0,0,0,0,0,0,0,0,0,0,0,0,0,0,0,0,0,0,0,0,0,0,0,0,0,0,0,0,0,0,0,0,0,0,0,0,0,0,0,0,0,0,0,0,0,0,0,0,0,0,0,0,0,0,0,0,0,0,0,0,0,0,0,0,0,0,0,0,0,0,0,0,0,0,0,0,0,0,0,0,0,0,0,0,0,0,0,0,0,0,0,0,0,0,0,0,0,0,0,0,0,0,0,0,0,0,0,0,0,0,0,0,0,0,0,0,0,0,0,0,0,0,0],"id":0,"left_children":[1,3,5,7,9,11,13,15,17,19,21,23,25,27,29,31,33,35,37,39,41,43,45,47,49,51,53,55,57,59,61,63,65,67,69,71,73,75,77,79,81,83,85,87,89,91,93,95,97,99,101,103,105,107,109,111,113,115,117,119,121,123,125,-1,-1,-1,-1,-1,-1,-1,-1,-1,-1,-1,-1,-1,-1,-1,-1,-1,-1,-1,-1,-1,-1,-1,-1,-1,-1,-1,-1,-1,-1,-1,-1,-1,-1,-1,-1,-1,-1,-1,-1,-1,-1,-1,-1,-1,-1,-1,-1,-1,-1,-1,-1,-1,-1,-1,-1,-1,-1,-1,-1,-1,-1,-1,-1],"loss_changes":[1.1700945E5,7.147484E4,1.9132102E4,4.3711086E4,1.4573947E4,7.447223E1,1.3492055E4,2.6060664E4,7.4310693E3,9.867798E1,5.999633E3,4.582129E1,2.3360695E1,5.7941967E1,9.482492E3,1.4238594E4,3.8270054E3,4.2250244E1,5.0619287E3,2.6777344E1,5.5479828E1,2.706607E1,4.362008E3,2.0026703E1,2.6739975E1,8.238594E0,1.695882E1,2.1760803E1,2.4935097E1,2.5664667E1,6.5738438E3,7.3668906E3,1.8171572E3,2.9164429E1,2.7762756E3,2.2607483E1,1.6398209E1,2.6540802E1,2.027123E3,5.247467E0,1.044931E1,2.5314575E1,1.711755E1,1.3808609E1,9.4978E0,2.0354156E1,3.0270742E3,3.0863953E0,1.6275833E1,8.866165E0,2.1473663E1,5.6455574E0,4.0206013E0,9.218751E0,7.235978E0,1.4234497E1,1.1529374E1,1.6924587E1,1.3525564E1,1.6185764E1,1.2446458E1,2.5067358E1,4.3600625E3,0E0,0E0,0E0,0E0,0E0,0E0,0E0,0E0,0E0,0E0,0E0,0E0,0E0,0E0,0E0,0E0,0E0,0E0,0E0,0E0,0E0,0E0,0E0,0E0,0E0,0E0,0E0,0E0,0E0,0E0,0E0,0E0,0E0,0E0,0E0,0E0,0E0,0E0,0E0,0E0,0E0,0E0,0E0,0E0,0E0,0E0,0E0,0E0,0E0,0E0,0E0,0E0,0E0,0E0,0E0,0E0,0E0,0E0,0E0,0E0,0E0,0E0,0E0,0E0],"parents":[2147483647,0,0,1,1,2,2,3,3,4,4,5,5,6,6,7,7,8,8,9,9,10,10,11,11,12,12,13,13,14,14,15,15,16,16,17,17,18,18,19,19,20,20,21,21,22,22,23,23,24,24,25,25,26,26,27,27,28,28,29,29,30,30,31,31,32,32,33,33,34,34,35,35,36,36,37,37,38,38,39,39,40,40,41,41,42,42,43,43,44,44,45,45,46,46,47,47,48,48,49,49,50,50,51,51,52,52,53,53,54,54,55,55,56,56,57,57,58,58,59,59,60,60,61,61,62,62],"right_children":[2,4,6,8,10,12,14,16,18,20,22,24,26,28,30,32,34,36,38,40,42,44,46,48,50,52,54,56,58,60,62,64,66,68,70,72,74,76,78,80,82,84,86,88,90,92,94,96,98,100,102,104,106,108,110,112,114,116,118,120,122,124,126,-1,-1,-1,-1,-1,-1,-1,-1,-1,-1,-1,-1,-1,-1,-1,-1,-1,-1,-1,-1,-1,-1,-1,-1,-1,-1,-1,-1,-1,-1,-1,-1,-1,-1,-1,-1,-1,-1,-1,-1,-1,-1,-1,-1,-1,-1,-1,-1,-1,-1,-1,-1,-1,-1,-1,-1,-1,-1,-1,-1,-1,-1,-1,-1],"split_conditions":[1E0,1E0,5E-1,1E0,5E-1,1E0,5E-1,1E0,5E-1,5E-1,5E-1,5E-1,5E-1,1E0,5E-1,1E0,5E-1,1E0,5E-1,5E-1,1E0,1E0,5E-1,5E-1,5E-1,1E0,1E0,1E0,1E0,1E0,5E-1,1E0,5E-1,5E-1,5E-1,5E-1,5E-1,5E-1,5E-1,1E0,5E-1,1E0,1E0,5E-1,1E0,1E0,5E-1,5E-1,1E0,5E-1,1E0,1E0,5E-1,1E0,5E-1,5E-1,1E0,5E-1,5E-1,5E-1,5E-1,1E0,5E-1,-9.762459E-2,-5.3865532E-3,-4.015301E-2,3.249419E-2,-4.615329E-2,-3.310104E-2,-2.8217493E-2,6.651151E-2,-4.141586E-2,-3.0565983E-2,-2.9612485E-2,-1.6592914E-2,-3.2806624E-2,-1.8556606E-2,-1.6485093E-2,8.7948725E-2,-4.8620574E-2,-3.7342094E-2,-3.7901875E-2,-2.6589265E-2,-2.8667761E-2,-1.6491964E-2,-1.4845132E-2,-1.138016E-3,-3.0858377E-2,-1.8111937E-2,-1.302994E-2,1.5546837E-3,-1.5751876E-2,-7.681641E-4,-5.4687117E-3,1.0362897E-1,-4.7044504E-2,-3.588439E-2,-2.9888034E-2,-1.3536222E-2,-3.2799E-2,-2.046102E-2,-1.719085E-2,-3.7782658E-3,-2.4523718E-2,-1.1234865E-2,-1.7154869E-2,-1.4261568E-3,-1.1777385E-2,7.512401E-4,-5.1341574E-3,1.0874725E-2,-2.6354438E-2,-1.3660799E-2,-1.0615115E-2,5.380983E-3,-1.371945E-2,1.2290032E-4,-2.966166E-3,1.4672597E-2,-1.673249E-2,-3.023766E-3,-4.3459684E-3,7.976695E-3,-4.2261197E-3,9.812932E-3,8.630775E-3,1.2389765E-1],"split_indices":[4,50,50,2,4,5,2,48,4,2,5,2,48,50,5,5,4,5,50,5,5,2,26,48,51,51,16,48,21,50,48,21,4,5,50,50,50,21,16,48,9,9,9,16,21,2,22,26,51,21,47,21,16,51,21,21,5,16,28,48,21,50,47,0,0,0,0,0,0,0,0,0,0,0,0,0,0,0,0,0,0,0,0,0,0,0,0,0,0,0,0,0,0,0,0,0,0,0,0,0,0,0,0,0,0,0,0,0,0,0,0,0,0,0,0,0,0,0,0,0,0,0,0,0,0,0,0],"split_type":[0,0,0,0,0,0,0,0,0,0,0,0,0,0,0,0,0,0,0,0,0,0,0,0,0,0,0,0,0,0,0,0,0,0,0,0,0,0,0,0,0,0,0,0,0,0,0,0,0,0,0,0,0,0,0,0,0,0,0,0,0,0,0,0,0,0,0,0,0,0,0,0,0,0,0,0,0,0,0,0,0,0,0,0,0,0,0,0,0,0,0,0,0,0,0,0,0,0,0,0,0,0,0,0,0,0,0,0,0,0,0,0,0,0,0,0,0,0,0,0,0,0,0,0,0,0,0],"sum_hessian":[1.2E5,8.6171E4,3.3829E4,6.7129E4,1.9042E4,4.554E3,2.9275E4,5.6196E4,1.0933E4,4.424E3,1.4618E4,3.007E3,1.547E3,3.006E3,2.6269E4,4.9672E4,6.524E3,2.941E3,7.992E3,1.458E3,2.966E3,1.46E3,1.3158E4,1.048E3,1.959E3,5.46E2,1.001E3,1.493E3,1.513E3,1.921E3,2.4348E4,4.5859E4,3.813E3,1.959E3,4.565E3,1.963E3,9.78E2,1.439E3,6.553E3,5.2E2,9.38E2,1.945E3,1.021E3,9.72E2,4.88E2,1.008E3,1.215E4,3.36E2,7.12E2,6.54E2,1.305E3,3.69E2,1.77E2,6.66E2,3.35E2,9.93E2,5E2,1.006E3,5.07E2,9.79E2,9.42E2,1.27E3,2.3078E4,4.3581E4,2.278E3,1.311E3,2.502E3,6.54E2,1.305E3,9.86E2,3.579E3,9.62E2,1.001E3,4.89E2,4.89E2,5.09E2,9.3E2,5.03E2,6.05E3,3.38E2,1.82E2,3.2E2,6.18E2,1.302E3,6.43E2,6.78E2,3.43E2,3.21E2,6.51E2,3.16E2,1.72E2,6.64E2,3.44E2,6.73E2,1.1477E4,1.1E2,2.26E2,4.87E2,2.25E2,2.3E2,4.24E2,8.42E2,4.63E2,2.47E2,1.22E2,6.2E1,1.15E2,4.48E2,2.18E2,1E2,2.35E2,3.36E2,6.57E2,3.3E2,1.7E2,3.26E2,6.8E2,1.57E2,3.5E2,3.19E2,6.6E2,3E2,6.42E2,6.35E2,6.35E2,8.52E2,2.2226E4],"tree_param":{"num_deleted":"0","num_feature":"52","num_nodes":"127","size_leaf_vector":"1"}},{"base_weights":[-5.1101247E-6,-5.8777547E-1,1.4971675E0,-1.0485808E0,1.0366768E0,-3.1421554E-1,1.7789462E0,-1.3867043E0,6.893543E-1,-4.74028E-1,1.4938785E0,-4.0135166E-1,-1.4469382E-1,-1.2755534E-1,1.9971064E0,-1.620284E0,4.0565625E-1,-6.0162866E-1,1.1644428E0,-6.765141E-1,-3.7429723E-1,-3.183588E-1,1.7034221E0,-5.618294E-1,-3.1525853E-1,-3.0263913E-1,-5.8325786E-2,-2.6027814E-1,3.498436E-3,-4.327015E-2,2.1579018E0,-1.770126E0,1.4152466E-1,-7.2164327E-1,8.882339E-1,-7.6190907E-1,-5.1832634E-1,-4.4874674E-1,1.518704E0,-8.504598E-1,-5.7928056E-1,-4.6843204E-1,-1.9468798E-1,-4.11747E-1,-1.2373835E-1,-2.5945234E-1,1.8615805E0,-7.539145E-1,-4.7025228E-1,-3.9819667E-1,-1.571361E-1,-3.8337135E-1,-1.331247E-1,-1.45964E-1,1.1582009E-1,-3.4591022E-1,-9.438037E-2,-1.743048E-1,9.004103E-2,-1.3719128E-1,1.421675E-1,3.201054E-2,2.2761385E0,-9.307289E-2,-3.726282E-3,-4.015044E-2,3.1663027E-2,-4.0384833E-2,-2.7176548E-2,-2.7656058E-2,6.365358E-2,-4.5637388E-2,-3.431831E-2,-3.1850018E-2,-2.0148909E-2,-3.1169508E-2,-1.7629772E-2,-1.9530922E-2,8.377179E-2,-4.619672E-2,-3.548519E-2,-3.2652114E-2,-2.1190599E-2,-2.7235478E-2,-1.5668651E-2,-1.4299812E-2,-9.660478E-4,-2.4728747E-2,-1.1399005E-2,-1.7104784E-2,-1.0821937E-3,-1.7877642E-2,-2.877671E-3,-7.076169E-3,9.89737E-2,-4.4371616E-2,-3.3848003E-2,-2.83967E-2,-1.2862407E-2,-2.411377E-2,-1.1582196E-2,-1.668873E-2,-3.4429997E-3,-2.310395E-2,-9.89685E-3,-1.7777925E-2,-1.6695475E-3,-1.1189828E-2,7.1384874E-4,-4.1746213E-3,1.09272925E-2,-2.6590941E-2,-1.2719959E-2,-1.4104949E-2,5.7679205E-4,-1.398719E-2,-4.362904E-4,-2.0339994E-5,1.373589E-2,-1.2701605E-2,-5.8909797E-4,1.7923502E-3,1.7982725E-2,-7.4807517E-3,5.915164E-3,6.228697E-3,1.1791726E-1],"categories":[],"categories_nodes":[],"categories_segments":[],"categories_sizes":[],"default_left":[0,0,0,0,0,0,0,0,0,0,0,0,0,0,0,0,0,0,0,0,0,0,0,0,0,0,0,0,0,0,0,0,0,0,0,0,0,0,0,0,0,0,0,0,0,0,0,0,0,0,0,0,0,0,0,0,0,0,0,0,0,0,0,0,0,0,0,0,0,0,0,0,0,0,0,0,0,0,0,0,0,0,0,0,0,0,0,0,0,0,0,0,0,0,0,0,0,0,0,0,0,0,0,0,0,0,0,0,0,0,0,0,0,0,0,0,0,0,0,0,0,0,0,0,0,0,0],"id":1,"left_children":[1,3,5,7,9,11,13,15,17,19,21,23,25,27,29,31,33,35,37,39,41,43,45,47,49,51,53,55,57,59,61,63,65,67,69,71,73,75,77,79,81,83,85,87,89,91,93,95,97,99,101,103,105,107,109,111,113,115,117,119,121,123,125,-1,-1,-1,-1,-1,-1,-1,-1,-1,-1,-1,-1,-1,-1,-1,-1,-1,-1,-1,-1,-1,-1,-1,-1,-1,-1,-1,-1,-1,-1,-1,-1,-1,-1,-1,-1,-1,-1,-1,-1,-1,-1,-1,-1,-1,-1,-1,-1,-1,-1,-1,-1,-1,-1,-1,-1,-1,-1,-1,-1,-1,-1,-1,-1],"loss_changes":[1.0560101E5,6.450567E4,1.7267688E4,3.9449016E4,1.3153646E4,6.722595E1,1.217682E4,2.352804E4,6.7068633E3,8.910571E1,5.551996E3,4.13815E1,2.1099277E1,5.2304146E1,8.61882E3,1.3125461E4,3.5258232E3,3.8885864E1,4.5686064E3,2.4183899E1,5.0073303E1,2.7502747E1,4.0685625E3,1.8097961E1,2.5641617E1,7.434807E0,1.5309263E1,2.119136E1,2.3312449E1,3.345921E1,6.1207656E3,7.0958125E3,1.8109772E3,2.9341675E1,2.5178774E3,1.0813904E1,2.628595E1,2.3960968E1,1.9619482E3,4.7324524E0,1.0491333E1,2.2845673E1,1.6359207E1,1.5473572E1,1.0983081E1,1.9350052E1,2.8641016E3,2.861847E0,1.4689026E1,1.7882812E1,1.0517857E1,5.3087273E0,3.9369085E0,8.321993E0,6.8976893E0,1.66222E1,1.01433E1,8.656967E0,1.7021095E1,1.8679493E1,1.4924776E1,2.0141792E1,4.0798125E3,0E0,0E0,0E0,0E0,0E0,0E0,0E0,0E0,0E0,0E0,0E0,0E0,0E0,0E0,0E0,0E0,0E0,0E0,0E0,0E0,0E0,0E0,0E0,0E0,0E0,0E0,0E0,0E0,0E0,0E0,0E0,0E0,0E0,0E0,0E0,0E0,0E0,0E0,0E0,0E0,0E0,0E0,0E0,0E0,0E0,0E0,0E0,0E0,0E0,0E0,0E0,0E0,0E0,0E0,0E0,0E0,0E0,0E0,0E0,0E0,0E0,0E0,0E0,0E0],"parents":[2147483647,0,0,1,1,2,2,3,3,4,4,5,5,6,6,7,7,8,8,9,9,10,10,11,11,12,12,13,13,14,14,15,15,16,16,17,17,18,18,19,19,20,20,21,21,22,22,23,23,24,24,25,25,26,26,27,27,28,28,29,29,30,30,31,31,32,32,33,33,34,34,35,35,36,36,37,37,38,38,39,39,40,40,41,41,42,42,43,43,44,44,45,45,46,46,47,47,48,48,49,49,50,50,51,51,52,52,53,53,54,54,55,55,56,56,57,57,58,58,59,59,60,60,61,61,62,62],"right_children":[2,4,6,8,10,12,14,16,18,20,22,24,26,28,30,32,34,36,38,40,42,44,46,48,50,52,54,56,58,60,62,64,66,68,70,72,74,76,78,80,82,84,86,88,90,92,94,96,98,100,102,104,106,108,110,112,114,116,118,120,122,124,126,-1,-1,-1,-1,-1,-1,-1,-1,-1,-1,-1,-1,-1,-1,-1,-1,-1,-1,-1,-1,-1,-1,-1,-1,-1,-1,-1,-1,-1,-1,-1,-1,-1,-1,-1,-1,-1,-1,-1,-1,-1,-1,-1,-1,-1,-1,-1,-1,-1,-1,-1,-1,-1,-1,-1,-1,-1,-1,-1,-1,-1,-1,-1,-1],"split_conditions":[1E0,1E0,5E-1,1E0,5E-1,1E0,5E-1,1E0,5E-1,5E-1,5E-1,5E-1,5E-1,1E0,5E-1,1E0,5E-1,5E-1,5E-1,5E-1,1E0,1E0,5E-1,5E-1,1E0,1E0,1E0,1E0,5E-1,1E0,5E-1,1E0,5E-1,1E0,5E-1,5E-1,5E-1,5E-1,5E-1,1E0,1E0,1E0,1E0,1E0,5E-1,1E0,5E-1,5E-1,1E0,1E0,5E-1,1E0,5E-1,1E0,5E-1,5E-1,5E-1,1E0,1E0,1E0,1E0,5E-1,5E-1,-9.307289E-2,-3.726282E-3,-4.015044E-2,3.1663027E-2,-4.0384833E-2,-2.7176548E-2,-2.7656058E-2,6.365358E-2,-4.5637388E-2,-3.431831E-2,-3.1850018E-2,-2.0148909E-2,-3.1169508E-2,-1.7629772E-2,-1.9530922E-2,8.377179E-2,-4.619672E-2,-3.548519E-2,-3.2652114E-2,-2.1190599E-2,-2.7235478E-2,-1.5668651E-2,-1.4299812E-2,-9.660478E-4,-2.4728747E-2,-1.1399005E-2,-1.7104784E-2,-1.0821937E-3,-1.7877642E-2,-2.877671E-3,-7.076169E-3,9.89737E-2,-4.4371616E-2,-3.3848003E-2,-2.83967E-2,-1.2862407E-2,-2.411377E-2,-1.1582196E-2,-1.668873E-2,-3.4429997E-3,-2.310395E-2,-9.89685E-3,-1.7777925E-2,-1.6695475E-3,-1.1189828E-2,7.1384874E-4,-4.1746213E-3,1.09272925E-2,-2.6590941E-2,-1.2719959E-2,-1.4104949E-2,5.7679205E-4,-1.398719E-2,-4.362904E-4,-2.0339994E-5,1.373589E-2,-1.2701605E-2,-5.8909797E-4,1.7923502E-3,1.7982725E-2,-7.4807517E-3,5.915164E-3,6.228697E-3,1.1791726E-1],"split_indices":[4,50,50,2,4,5,2,16,4,2,14,2,48,50,14,15,4,5,50,5,5,2,9,48,16,51,16,16,5,16,5,48,4,5,50,16,50,21,47,48,48,9,14,48,24,5,26,28,51,48,21,26,2,51,26,21,48,51,21,50,26,9,26,0,0,0,0,0,0,0,0,0,0,0,0,0,0,0,0,0,0,0,0,0,0,0,0,0,0,0,0,0,0,0,0,0,0,0,0,0,0,0,0,0,0,0,0,0,0,0,0,0,0,0,0,0,0,0,0,0,0,0,0,0,0,0,0],"split_type":[0,0,0,0,0,0,0,0,0,0,0,0,0,0,0,0,0,0,0,0,0,0,0,0,0,0,0,0,0,0,0,0,0,0,0,0,0,0,0,0,0,0,0,0,0,0,0,0,0,0,0,0,0,0,0,0,0,0,0,0,0,0,0,0,0,0,0,0,0,0,0,0,0,0,0,0,0,0,0,0,0,0,0,0,0,0,0,0,0,0,0,0,0,0,0,0,0,0,0,0,0,0,0,0,0,0,0,0,0,0,0,0,0,0,0,0,0,0,0,0,0,0,0,0,0,0,0],"sum_hessian":[1.2E5,8.6171E4,3.3829E4,6.7129E4,1.9042E4,4.554E3,2.9275E4,5.6196E4,1.0933E4,4.424E3,1.4618E4,3.007E3,1.547E3,3.006E3,2.6269E4,4.9717E4,6.479E3,2.941E3,7.992E3,1.458E3,2.966E3,1.515E3,1.3103E4,1.048E3,1.959E3,5.46E2,1.001E3,1.493E3,1.513E3,1.919E3,2.435E4,4.582E4,3.897E3,1.942E3,4.537E3,1.003E3,1.938E3,1.439E3,6.553E3,5.2E2,9.38E2,1.945E3,1.021E3,1.023E3,4.92E2,9.77E2,1.2126E4,3.36E2,7.12E2,1.284E3,6.75E2,3.69E2,1.77E2,6.66E2,3.35E2,9.84E2,5.09E2,4.95E2,1.018E3,1.274E3,6.45E2,1.283E3,2.3067E4,4.3478E4,2.342E3,1.334E3,2.563E3,1.307E3,6.35E2,9.56E2,3.581E3,3.31E2,6.72E2,9.53E2,9.85E2,5.09E2,9.3E2,4.97E2,6.056E3,3.38E2,1.82E2,6.34E2,3.04E2,1.302E3,6.43E2,6.71E2,3.5E2,7.04E2,3.19E2,1.56E2,3.36E2,6.57E2,3.2E2,6.74E2,1.1452E4,1.19E2,2.17E2,4.87E2,2.25E2,8.52E2,4.32E2,2.24E2,4.51E2,2.58E2,1.11E2,5.4E1,1.23E2,4.48E2,2.18E2,1.14E2,2.21E2,3.23E2,6.61E2,1.83E2,3.26E2,3.02E2,1.93E2,6.84E2,3.34E2,6.59E2,6.15E2,4.34E2,2.11E2,4.13E2,8.7E2,8.49E2,2.2218E4],"tree_param":{"num_deleted":"0","num_feature":"52","num_nodes":"127","size_leaf_vector":"1"}},{"base_weights":[-9.741569E-6,-5.583917E-1,1.4223045E0,-9.9615544E-1,9.8483366E-1,-2.9855558E-1,1.6900014E0,-1.3229202E0,6.432927E-1,-4.5037034E-1,1.4191858E0,-3.8134238E-1,-1.3749537E-1,-1.21195406E-1,1.897256E0,-1.5420216E0,3.919937E-1,-6.016262E-1,1.0999739E0,-6.4278126E-1,-3.5560194E-1,-3.5976353E-1,1.6177909E0,-5.4327977E-1,-3.0305764E-1,-3.0122104E-1,-6.0472872E-2,-2.4729967E-1,3.3230637E-3,-7.794966E-2,2.051343E0,-1.6836238E0,1.619585E-1,-6.700376E-1,8.717506E-1,-7.7877617E-1,-5.127056E-1,-4.4951916E-1,1.4446051E0,-8.080936E-1,-5.5037385E-1,-4.4503248E-1,-1.8496847E-1,-5.3144383E-1,-2.7769905E-1,-2.96268E-1,1.7690492E0,-6.345634E-1,-3.5418573E-1,-3.8212922E-1,-1.3685875E-1,-4.523909E-1,-2.2767007E-1,-1.4843474E-1,1.102289E-1,-4.0790734E-1,-1.5986218E-1,-1.6648914E-1,8.697112E-2,-1.645419E-1,8.831545E-2,1.3443706E-2,2.1658103E0,-8.862638E-2,-3.3588198E-3,-3.7956674E-2,3.1670284E-2,-3.9672364E-2,-2.7366016E-2,-2.574457E-2,6.309346E-2,-4.745754E-2,-3.4412313E-2,-2.9435584E-2,-1.8394075E-2,-2.6596362E-2,-1.4297328E-2,-2.4816444E-2,8.025857E-2,-4.3893702E-2,-3.3720624E-2,-3.488106E-2,-2.3692423E-2,-2.9586378E-2,-1.8394658E-2,-1.36070205E-2,-6.183765E-4,-3.186792E-2,-1.5467639E-2,-1.7522486E-2,-5.3468845E-3,-1.9367376E-2,-5.1892353E-3,-7.6788226E-3,9.428408E-2,-3.5876937E-2,-2.3170909E-2,-2.2457017E-2,-8.398125E-3,-2.7187333E-2,-1.5000916E-2,-1.2119516E-2,2.5989374E-3,-2.8048782E-2,-1.1342197E-2,-1.5176998E-2,-4.2787134E-3,-1.623112E-2,-3.234161E-3,4.6653362E-4,1.4836825E-2,-3.057147E-2,-1.5146824E-2,-1.2263134E-2,3.1237394E-4,-1.2888992E-2,3.015623E-4,7.1296904E-6,1.3820737E-2,-1.4344742E-2,-2.2699058E-3,-5.1736487E-3,9.178362E-3,-5.7551134E-3,7.4651106E-3,2.216511E-3,1.12352565E-1],"categories":[],"categories_nodes":[],"categories_segments":[],"categories_sizes":[],"default_left":[0,0,0,0,0,0,0,0,0,0,0,0,0,0,0,0,0,0,0,0,0,0,0,0,0,0,0,0,0,0,0,0,0,0,0,0,0,0,0,0,0,0,0,0,0,0,0,0,0,0,0,0,0,0,0,0,0,0,0,0,0,0,0,0,0,0,0,0,0,0,0,0,0,0,0,0,0,0,0,0,0,0,0,0,0,0,0,0,0,0,0,0,0,0,0,0,0,0,0,0,0,0,0,0,0,0,0,0,0,0,0,0,0,0,0,0,0,0,0,0,0,0,0,0,0,0,0],"id":2,"left_children":[1,3,5,7,9,11,13,15,17,19,21,23,25,27,29,31,33,35,37,39,41,43,45,47,49,51,53,55,57,59,61,63,65,67,69,71,73,75,77,79,81,83,85,87,89,91,93,95,97,99,101,103,105,107,109,111,113,115,117,119,121,123,125,-1,-1,-1,-1,-1,-1,-1,-1,-1,-1,-1,-1,-1,-1,-1,-1,-1,-1,-1,-1,-1,-1,-1,-1,-1,-1,-1,-1,-1,-1,-1,-1,-1,-1,-1,-1,-1,-1,-1,-1,-1,-1,-1,-1,-1,-1,-1,-1,-1,-1,-1,-1,-1,-1,-1,-1,-1,-1,-1,-1,-1,-1,-1,-1],"loss_changes":[9.530494E4,5.821604E4,1.55849375E4,3.596333E4,1.1871734E4,6.0682404E1,1.0989828E4,2.1032273E4,6.3437627E3,8.0458984E1,5.1656016E3,3.7968445E1,1.950293E1,4.7217663E1,7.995508E3,1.1976086E4,3.23194E3,4.6778687E1,4.3597217E3,2.1843079E1,4.5193634E1,2.0548935E1,3.807961E3,1.667395E1,2.6625168E1,5.400753E0,1.5842432E1,2.091523E1,2.1520033E1,2.7398136E1,5.6846016E3,6.5853125E3,1.6545244E3,2.9460938E1,2.3640815E3,1.475531E1,2.1765442E1,1.9878754E1,2.0819854E3,4.267975E0,1.0250214E1,2.1803162E1,1.53736E1,1.0952591E1,1.2335831E1,1.6859962E1,2.733332E3,9.025818E0,5.6007233E0,1.8083878E1,1.3085575E1,3.8157883E0,3.5855904E0,1.0249169E1,6.7529964E0,1.1052185E1,1.3747618E1,7.8763065E0,1.6695807E1,1.8223541E1,1.1929851E1,2.2668077E1,3.9765469E3,0E0,0E0,0E0,0E0,0E0,0E0,0E0,0E0,0E0,0E0,0E0,0E0,0E0,0E0,0E0,0E0,0E0,0E0,0E0,0E0,0E0,0E0,0E0,0E0,0E0,0E0,0E0,0E0,0E0,0E0,0E0,0E0,0E0,0E0,0E0,0E0,0E0,0E0,0E0,0E0,0E0,0E0,0E0,0E0,0E0,0E0,0E0,0E0,0E0,0E0,0E0,0E0,0E0,0E0,0E0,0E0,0E0,0E0,0E0,0E0,0E0,0E0,0E0,0E0],"parents":[2147483647,0,0,1,1,2,2,3,3,4,4,5,5,6,6,7,7,8,8,9,9,10,10,11,11,12,12,13,13,14,14,15,15,16,16,17,17,18,18,19,19,20,20,21,21,22,22,23,23,24,24,25,25,26,26,27,27,28,28,29,29,30,30,31,31,32,32,33,33,34,34,35,35,36,36,37,37,38,38,39,39,40,40,41,41,42,42,43,43,44,44,45,45,46,46,47,47,48,48,49,49,50,50,51,51,52,52,53,53,54,54,55,55,56,56,57,57,58,58,59,59,60,60,61,61,62,62],"right_children":[2,4,6,8,10,12,14,16,18,20,22,24,26,28,30,32,34,36,38,40,42,44,46,48,50,52,54,56,58,60,62,64,66,68,70,72,74,76,78,80,82,84,86,88,90,92,94,96,98,100,102,104,106,108,110,112,114,116,118,120,122,124,126,-1,-1,-1,-1,-1,-1,-1,-1,-1,-1,-1,-1,-1,-1,-1,-1,-1,-1,-1,-1,-1,-1,-1,-1,-1,-1,-1,-1,-1,-1,-1,-1,-1,-1,-1,-1,-1,-1,-1,-1,-1,-1,-1,-1,-1,-1,-1,-1,-1,-1,-1,-1,-1,-1,-1,-1,-1,-1,-1,-1,-1,-1,-1,-1],"split_conditions":[1E0,1E0,5E-1,1E0,5E-1,1E0,5E-1,1E0,5E-1,5E-1,5E-1,5E-1,5E-1,1E0,5E-1,1E0,5E-1,5E-1,5E-1,5E-1,1E0,5E-1,5E-1,1E0,1E0,5E-1,1E0,5E-1,5E-1,1E0,5E-1,1E0,5E-1,5E-1,5E-1,5E-1,1E0,1E0,5E-1,1E0,5E-1,5E-1,1E0,1E0,1E0,1E0,5E-1,1E0,1E0,5E-1,1E0,1E0,1E0,5E-1,1E0,5E-1,1E0,1E0,1E0,1E0,5E-1,1E0,5E-1,-8.862638E-2,-3.3588198E-3,-3.7956674E-2,3.1670284E-2,-3.9672364E-2,-2.7366016E-2,-2.574457E-2,6.309346E-2,-4.745754E-2,-3.4412313E-2,-2.9435584E-2,-1.8394075E-2,-2.6596362E-2,-1.4297328E-2,-2.4816444E-2,8.025857E-2,-4.3893702E-2,-3.3720624E-2,-3.488106E-2,-2.3692423E-2,-2.9586378E-2,-1.8394658E-2,-1.36070205E-2,-6.183765E-4,-3.186792E-2,-1.5467639E-2,-1.7522486E-2,-5.3468845E-3,-1.9367376E-2,-5.1892353E-3,-7.6788226E-3,9.428408E-2,-3.5876937E-2,-2.3170909E-2,-2.2457017E-2,-8.398125E-3,-2.7187333E-2,-1.5000916E-2,-1.2119516E-2,2.5989374E-3,-2.8048782E-2,-1.1342197E-2,-1.5176998E-2,-4.2787134E-3,-1.623112E-2,-3.234161E-3,4.6653362E-4,1.4836825E-2,-3.057147E-2,-1.5146824E-2,-1.2263134E-2,3.1237394E-4,-1.2888992E-2,3.015623E-4,7.1296904E-6,1.3820737E-2,-1.4344742E-2,-2.2699058E-3,-5.1736487E-3,9.178362E-3,-5.7551134E-3,7.4651106E-3,2.216511E-3,1.12352565E-1],"split_indices":[4,50,50,48,4,5,2,51,4,2,48,16,21,50,16,21,4,2,50,5,5,2,2,48,51,51,26,5,16,21,48,28,4,50,48,5,16,2,51,48,16,21,9,5,14,5,15,28,15,2,14,48,49,14,47,9,21,21,5,50,51,50,21,0,0,0,0,0,0,0,0,0,0,0,0,0,0,0,0,0,0,0,0,0,0,0,0,0,0,0,0,0,0,0,0,0,0,0,0,0,0,0,0,0,0,0,0,0,0,0,0,0,0,0,0,0,0,0,0,0,0,0,0,0,0,0,0],"split_type":[0,0,0,0,0,0,0,0,0,0,0,0,0,0,0,0,0,0,0,0,0,0,0,0,0,0,0,0,0,0,0,0,0,0,0,0,0,0,0,0,0,0,0,0,0,0,0,0,0,0,0,0,0,0,0,0,0,0,0,0,0,0,0,0,0,0,0,0,0,0,0,0,0,0,0,0,0,0,0,0,0,0,0,0,0,0,0,0,0,0,0,0,0,0,0,0,0,0,0,0,0,0,0,0,0,0,0,0,0,0,0,0,0,0,0,0,0,0,0,0,0,0,0,0,0,0,0],"sum_hessian":[1.2E5,8.6171E4,3.3829E4,6.7129E4,1.9042E4,4.554E3,2.9275E4,5.5973E4,1.1156E4,4.424E3,1.4618E4,3.007E3,1.547E3,3.006E3,2.6269E4,4.9632E4,6.341E3,2.994E3,8.162E3,1.458E3,2.966E3,1.468E3,1.315E4,9.78E2,2.029E3,4.94E2,1.053E3,1.493E3,1.513E3,1.901E3,2.4368E4,4.5824E4,3.808E3,1.973E3,4.368E3,9.98E2,1.996E3,1.485E3,6.677E3,5.2E2,9.38E2,1.945E3,1.021E3,4.73E2,9.95E2,9.63E2,1.2187E4,6.58E2,3.2E2,1.374E3,6.55E2,1.6E2,3.34E2,6.95E2,3.58E2,5.25E2,9.68E2,4.99E2,1.014E3,1.25E3,6.51E2,1.296E3,2.3072E4,4.3435E4,2.389E3,1.289E3,2.519E3,9.81E2,9.92E2,9.59E2,3.409E3,3.43E2,6.55E2,1.307E3,6.89E2,9.86E2,4.99E2,5.1E2,6.167E3,3.38E2,1.82E2,3.18E2,6.2E2,6.68E2,1.277E3,6.78E2,3.43E2,3.19E2,1.54E2,6.97E2,2.98E2,6.53E2,3.1E2,6.97E2,1.149E4,4.41E2,2.17E2,2.11E2,1.09E2,4.61E2,9.13E2,4.2E2,2.35E2,1.07E2,5.3E1,2.17E2,1.17E2,2.23E2,4.72E2,2.33E2,1.25E2,1.77E2,3.48E2,6.39E2,3.29E2,3.26E2,1.73E2,6.96E2,3.18E2,6.16E2,6.34E2,2.16E2,4.35E2,6.66E2,6.3E2,8.51E2,2.2221E4],"tree_param":{"num_deleted":"0","num_feature":"52","num_nodes":"127","size_leaf_vector":"1"}},{"base_weights":[-1.4319487E-5,-5.3047734E-1,1.3511846E0,-9.463513E-1,9.3558115E-1,-2.8367275E-1,1.605503E0,-1.2551806E0,6.479741E-1,-4.2789665E-1,1.348226E0,-3.6232236E-1,-1.3066131E-1,-1.5930055E-1,1.7985071E0,-1.4688053E0,3.96022E-1,-5.4767495E-1,1.0824025E0,-5.2035856E-1,-2.4110542E-1,-3.6414298E-1,1.5382421E0,-5.1720554E-1,-2.8330094E-1,-2.798069E-1,-4.9111117E-2,-2.7426833E-1,-3.6822837E-2,-7.2940476E-2,1.9503113E0,-1.605963E0,1.560621E-1,-6.512456E-1,8.450285E-1,-6.2676364E-1,-3.8510546E-1,-4.1337168E-1,1.4174055E0,-6.0832214E-1,-3.4820992E-1,-3.2406652E-1,-7.5536974E-2,-4.4497368E-1,-2.025634E-1,-2.9467934E-1,1.6872194E0,-7.085143E-1,-4.2149383E-1,-3.606647E-1,-1.1792684E-1,-4.5594573E-1,-2.0385228E-1,-1.3196255E-1,1.1550501E-1,-3.5604474E-1,-1.2778099E-1,-1.1853738E-1,1.2494599E-1,-1.629433E-1,1.0065867E-1,1.1145206E-2,2.0634792E0,-8.450912E-2,-2.9543561E-3,-3.367975E-2,2.9059216E-2,-4.0694933E-2,-2.8159762E-2,-2.6410593E-2,6.0630478E-2,-3.6573607E-2,-2.6022037E-2,-2.7040064E-2,-1.5049814E-2,-2.4560595E-2,-1.289004E-2,-2.0539192E-2,7.863545E-2,-3.383473E-2,-2.3377378E-2,-2.1466833E-2,-9.577378E-3,-2.3979347E-2,-1.2145261E-2,-8.325667E-3,5.5985292E-3,-3.0442974E-2,-1.8389529E-2,-1.4833885E-2,-1.4470139E-3,-2.3166975E-2,-1.0671684E-2,-9.963359E-3,8.978786E-2,-4.3269433E-2,-3.1112859E-2,-3.0883426E-2,-1.6431993E-2,-2.5652263E-2,-1.3743776E-2,-1.0468318E-2,3.1897041E-3,-2.7620483E-2,-1.3506268E-2,-1.483493E-2,-6.8151084E-4,-1.0281059E-2,9.828495E-4,-4.5028934E-3,1.0149477E-2,-2.4491439E-2,-1.4131698E-2,-1.1153886E-2,2.4649526E-3,-1.023007E-2,2.230199E-3,2.485242E-3,1.41785E-2,-1.2203211E-2,4.58705E-4,-1.3276666E-3,1.0944282E-2,-3.4143557E-3,9.738424E-3,3.703883E-3,1.0699389E-1],"categories":[],"categories_nodes":[],"categories_segments":[],"categories_sizes":[],"default_left":[0,0,0,0,0,0,0,0,0,0,0,0,0,0,0,0,0,0,0,0,0,0,0,0,0,0,0,0,0,0,0,0,0,0,0,0,0,0,0,0,0,0,0,0,0,0,0,0,0,0,0,0,0,0,0,0,0,0,0,0,0,0,0,0,0,0,0,0,0,0,0,0,0,0,0,0,0,0,0,0,0,0,0,0,0,0,0,0,0,0,0,0,0,0,0,0,0,0,0,0,0,0,0,0,0,0,0,0,0,0,0,0,0,0,0,0,0,0,0,0,0,0,0,0,0,0,0],"id":3,"left_children":[1,3,5,7,9,11,13,15,17,19,21,23,25,27,29,31,33,35,37,39,41,43,45,47,49,51,53,55,57,59,61,63,65,67,69,71,73,75,77,79,81,83,85,87,89,91,93,95,97,99,101,103,105,107,109,111,113,115,117,119,121,123,125,-1,-1,-1,-1,-1,-1,-1,-1,-1,-1,-1,-1,-1,-1,-1,-1,-1,-1,-1,-1,-1,-1,-1,-1,-1,-1,-1,-1,-1,-1,-1,-1,-1,-1,-1,-1,-1,-1,-1,-1,-1,-1,-1,-1,-1,-1,-1,-1,-1,-1,-1,-1,-1,-1,-1,-1,-1,-1,-1,-1,-1,-1,-1,-1],"loss_changes":[8.601276E4,5.253957E4,1.4066094E4,3.305391E4,1.0714775E4,5.476886E1,9.972125E3,1.9837492E4,5.6591963E3,7.629907E1,4.757258E3,3.666867E1,1.8814352E1,4.0641724E1,7.497367E3,1.1097719E4,3.030242E3,3.7096497E1,4.004788E3,4.4595764E1,2.0125862E1,1.8991394E1,3.593746E3,1.8286499E1,2.5468628E1,7.225128E0,1.3681204E1,1.779155E1,1.8508005E1,3.0968365E1,5.3567812E3,5.982086E3,1.3678314E3,2.7239685E1,2.277185E3,2.1350708E1,1.2317184E1,1.7589813E1,1.8543857E3,1.8519897E1,1.266539E1,1.2215424E1,8.394495E0,1.20837555E1,7.98188E0,1.3466988E1,2.4922266E3,4.0216217E0,1.2165398E1,1.7611572E1,1.0598049E1,2.7904701E0,6.7779417E0,7.4531555E0,6.060759E0,9.240784E0,9.039203E0,1.3066882E1,5.5953803E0,1.8223064E1,1.0187815E1,1.9660131E1,3.5052734E3,0E0,0E0,0E0,0E0,0E0,0E0,0E0,0E0,0E0,0E0,0E0,0E0,0E0,0E0,0E0,0E0,0E0,0E0,0E0,0E0,0E0,0E0,0E0,0E0,0E0,0E0,0E0,0E0,0E0,0E0,0E0,0E0,0E0,0E0,0E0,0E0,0E0,0E0,0E0,0E0,0E0,0E0,0E0,0E0,0E0,0E0,0E0,0E0,0E0,0E0,0E0,0E0,0E0,0E0,0E0,0E0,0E0,0E0,0E0,0E0,0E0,0E0,0E0,0E0],"parents":[2147483647,0,0,1,1,2,2,3,3,4,4,5,5,6,6,7,7,8,8,9,9,10,10,11,11,12,12,13,13,14,14,15,15,16,16,17,17,18,18,19,19,20,20,21,21,22,22,23,23,24,24,25,25,26,26,27,27,28,28,29,29,30,30,31,31,32,32,33,33,34,34,35,35,36,36,37,37,38,38,39,39,40,40,41,41,42,42,43,43,44,44,45,45,46,46,47,47,48,48,49,49,50,50,51,51,52,52,53,53,54,54,55,55,56,56,57,57,58,58,59,59,60,60,61,61,62,62],"right_children":[2,4,6,8,10,12,14,16,18,20,22,24,26,28,30,32,34,36,38,40,42,44,46,48,50,52,54,56,58,60,62,64,66,68,70,72,74,76,78,80,82,84,86,88,90,92,94,96,98,100,102,104,106,108,110,112,114,116,118,120,122,124,126,-1,-1,-1,-1,-1,-1,-1,-1,-1,-1,-1,-1,-1,-1,-1,-1,-1,-1,-1,-1,-1,-1,-1,-1,-1,-1,-1,-1,-1,-1,-1,-1,-1,-1,-1,-1,-1,-1,-1,-1,-1,-1,-1,-1,-1,-1,-1,-1,-1,-1,-1,-1,-1,-1,-1,-1,-1,-1,-1,-1,-1,-1,-1,-1],"split_conditions":[1E0,1E0,5E-1,1E0,5E-1,1E0,5E-1,1E0,5E-1,1E0,5E-1,5E-1,5E-1,1E0,5E-1,1E0,5E-1,1E0,5E-1,1E0,1E0,1E0,5E-1,5E-1,1E0,5E-1,1E0,1E0,1E0,1E0,5E-1,1E0,5E-1,5E-1,5E-1,5E-1,5E-1,1E0,5E-1,1E0,1E0,5E-1,1E0,5E-1,1E0,5E-1,5E-1,5E-1,5E-1,5E-1,1E0,1E0,1E0,1E0,5E-1,5E-1,1E0,1E0,1E0,1E0,1E0,1E0,5E-1,-8.450912E-2,-2.9543561E-3,-3.367975E-2,2.9059216E-2,-4.0694933E-2,-2.8159762E-2,-2.6410593E-2,6.0630478E-2,-3.6573607E-2,-2.6022037E-2,-2.7040064E-2,-1.5049814E-2,-2.4560595E-2,-1.289004E-2,-2.0539192E-2,7.863545E-2,-3.383473E-2,-2.3377378E-2,-2.1466833E-2,-9.577378E-3,-2.3979347E-2,-1.2145261E-2,-8.325667E-3,5.5985292E-3,-3.0442974E-2,-1.8389529E-2,-1.4833885E-2,-1.4470139E-3,-2.3166975E-2,-1.0671684E-2,-9.963359E-3,8.978786E-2,-4.3269433E-2,-3.1112859E-2,-3.0883426E-2,-1.6431993E-2,-2.5652263E-2,-1.3743776E-2,-1.0468318E-2,3.1897041E-3,-2.7620483E-2,-1.3506268E-2,-1.483493E-2,-6.8151084E-4,-1.0281059E-2,9.828495E-4,-4.5028934E-3,1.0149477E-2,-2.4491439E-2,-1.4131698E-2,-1.1153886E-2,2.4649526E-3,-1.023007E-2,2.230199E-3,2.485242E-3,1.41785E-2,-1.2203211E-2,4.58705E-4,-1.3276666E-3,1.0944282E-2,-3.4143557E-3,9.738424E-3,3.703883E-3,1.0699389E-1],"split_indices":[4,50,50,5,4,5,51,14,50,2,5,48,48,50,15,9,4,2,4,5,5,2,21,47,51,47,16,15,2,21,2,3,4,2,5,4,51,2,9,9,9,15,9,51,21,0,47,16,2,2,47,37,21,51,21,21,16,15,15,16,50,5,16,0,0,0,0,0,0,0,0,0,0,0,0,0,0,0,0,0,0,0,0,0,0,0,0,0,0,0,0,0,0,0,0,0,0,0,0,0,0,0,0,0,0,0,0,0,0,0,0,0,0,0,0,0,0,0,0,0,0,0,0,0,0,0,0],"split_type":[0,0,0,0,0,0,0,0,0,0,0,0,0,0,0,0,0,0,0,0,0,0,0,0,0,0,0,0,0,0,0,0,0,0,0,0,0,0,0,0,0,0,0,0,0,0,0,0,0,0,0,0,0,0,0,0,0,0,0,0,0,0,0,0,0,0,0,0,0,0,0,0,0,0,0,0,0,0,0,0,0,0,0,0,0,0,0,0,0,0,0,0,0,0,0,0,0,0,0,0,0,0,0,0,0,0,0,0,0,0,0,0,0,0,0,0,0,0,0,0,0,0,0,0,0,0,0],"sum_hessian":[1.2E5,8.6171E4,3.3829E4,6.7129E4,1.9042E4,4.554E3,2.9275E4,5.6236E4,1.0893E4,4.424E3,1.4618E4,3.007E3,1.547E3,2.886E3,2.6389E4,4.9794E4,6.442E3,2.903E3,7.99E3,2.958E3,1.466E3,1.46E3,1.3158E4,1.014E3,1.993E3,5.46E2,1.001E3,1.488E3,1.398E3,1.98E3,2.4409E4,4.5918E4,3.876E3,1.933E3,4.509E3,1.951E3,9.52E2,1.462E3,6.528E3,1.956E3,1.002E3,9.76E2,4.9E2,9.72E2,4.88E2,9.89E2,1.2169E4,3.36E2,6.78E2,1.357E3,6.36E2,1.63E2,3.83E2,6.66E2,3.35E2,9.54E2,5.34E2,9.29E2,4.69E2,1.304E3,6.76E2,1.346E3,2.3063E4,4.3547E4,2.371E3,1.313E3,2.563E3,6.76E2,1.257E3,9.52E2,3.557E3,9.8E2,9.71E2,3.32E2,6.2E2,9.73E2,4.89E2,5.11E2,6.017E3,1.314E3,6.42E2,6.59E2,3.43E2,3.33E2,6.43E2,3.3E2,1.6E2,3.09E2,6.63E2,3.16E2,1.72E2,3.2E2,6.69E2,6.62E2,1.1507E4,1.16E2,2.2E2,2.16E2,4.62E2,4.87E2,8.7E2,4.23E2,2.13E2,1.06E2,5.7E1,2.57E2,1.26E2,4.48E2,2.18E2,1E2,2.35E2,3.36E2,6.18E2,3.47E2,1.87E2,6.08E2,3.21E2,3.19E2,1.5E2,8.86E2,4.18E2,3.26E2,3.5E2,9.4E2,4.06E2,8.53E2,2.221E4],"tree_param":{"num_deleted":"0","num_feature":"52","num_nodes":"127","size_leaf_vector":"1"}},{"base_weights":[-1.7861446E-5,-1.3135122E0,4.9503297E-1,-1.4546633E0,-4.0653056E-1,-1.0926677E0,9.299823E-1,-1.5649363E0,-4.990074E-1,-5.845714E-1,-3.1884328E-1,-1.3568527E0,-2.6953933E-1,-9.149893E-1,1.2824891E0,-1.6465361E0,-5.815122E-1,-6.43307E-1,-4.240328E-1,-7.375404E-1,-4.990747E-1,-4.7966787E-1,-2.407253E-1,-1.467352E0,-4.113411E-1,-4.2065918E-1,-1.954232E-1,-1.1828912E0,-1.6227835E-1,-7.527603E-1,1.5376676E0,-1.7053518E0,-6.7129385E-1,-6.949358E-1,-4.666764E-1,-7.834285E-1,-5.732272E-1,-5.3373E-1,-3.1746575E-1,-8.0386055E-1,-6.106548E-1,-5.687227E-1,-3.5243353E-1,-5.6339794E-1,-3.088876E-1,-3.1925687E-1,-8.482484E-2,-1.5471458E0,-4.6832755E-1,-5.7483864E-1,-3.3251807E-1,-5.7050395E-1,-3.445622E-1,-3.4777218E-1,-1.1360293E-1,-1.3683364E0,-3.4143162E-1,-2.748197E-1,-4.86044E-2,-1.058327E0,-6.0018275E-2,-6.031002E-1,1.7097375E0,-8.719404E-2,-3.595365E-2,-4.039491E-2,-2.9948449E-2,-3.8364653E-2,-2.6975801E-2,-2.6950682E-2,-1.5926545E-2,-4.2642158E-2,-3.0692905E-2,-3.6012586E-2,-2.4763407E-2,-3.0235145E-2,-1.9627554E-2,-2.0213425E-2,-7.024503E-3,-4.329894E-2,-3.3683125E-2,-3.4275945E-2,-2.3037158E-2,-3.229774E-2,-2.0901332E-2,-2.6459694E-2,-1.3309672E-2,-3.3394005E-2,-2.2760963E-2,-2.095228E-2,-6.407659E-3,-1.9567875E-2,-8.195168E-3,-1.2871983E-2,2.8923998E-4,-8.004823E-2,-2.8448904E-2,-2.7374906E-2,-1.5152271E-2,-3.2761883E-2,-2.0049771E-2,-2.1104688E-2,-7.881637E-3,-3.6960114E-2,-2.4222841E-2,-2.1387957E-2,-8.919111E-3,-2.5682408E-2,-1.3378448E-2,-9.690742E-3,2.014656E-3,-7.226665E-2,-2.1464426E-2,-2.0956766E-2,-9.879132E-3,-1.797085E-2,-5.408856E-3,-6.513377E-3,5.1715723E-3,-6.296838E-2,-1.6642954E-2,-1.0648002E-2,7.66717E-4,-4.550487E-2,-1.6039802E-3,-2.1599153E-2,9.118088E-2],"categories":[],"categories_nodes":[],"categories_segments":[],"categories_sizes":[],"default_left":[0,0,0,0,0,0,0,0,0,0,0,0,0,0,0,0,0,0,0,0,0,0,0,0,0,0,0,0,0,0,0,0,0,0,0,0,0,0,0,0,0,0,0,0,0,0,0,0,0,0,0,0,0,0,0,0,0,0,0,0,0,0,0,0,0,0,0,0,0,0,0,0,0,0,0,0,0,0,0,0,0,0,0,0,0,0,0,0,0,0,0,0,0,0,0,0,0,0,0,0,0,0,0,0,0,0,0,0,0,0,0,0,0,0,0,0,0,0,0,0,0,0,0,0,0,0,0],"id":4,"left_children":[1,3,5,7,9,11,13,15,17,19,21,23,25,27,29,31,33,35,37,39,41,43,45,47,49,51,53,55,57,59,61,63,65,67,69,71,73,75,77,79,81,83,85,87,89,91,93,95,97,99,101,103,105,107,109,111,113,115,117,119,121,123,125,-1,-1,-1,-1,-1,-1,-1,-1,-1,-1,-1,-1,-1,-1,-1,-1,-1,-1,-1,-1,-1,-1,-1,-1,-1,-1,-1,-1,-1,-1,-1,-1,-1,-1,-1,-1,-1,-1,-1,-1,-1,-1,-1,-1,-1,-1,-1,-1,-1,-1,-1,-1,-1,-1,-1,-1,-1,-1,-1,-1,-1,-1,-1,-1],"loss_changes":[7.8030875E4,4.20466E3,6.0186902E4,2.994625E3,6.889636E1,4.0752344E3,4.4494586E4,2.0439844E3,3.1556213E1,1.8713287E1,3.715985E1,1.4817363E3,5.09357E1,2.2129463E3,2.9832219E4,1.3485273E3,2.5126709E1,9.409882E0,2.249765E1,3.8933716E0,9.389816E0,1.3682129E1,2.4446907E1,1.01191016E3,1.8959503E1,1.6884735E1,3.8079178E1,1.2625576E3,3.6856125E1,1.3546812E3,1.880221E4,8.420039E2,1.2755127E1,1.0618103E1,1.0266113E1,3.3843384E0,7.357132E0,9.321594E0,1.5090111E1,2.1583405E0,1.7379608E0,7.120468E0,4.508503E0,7.0314484E0,6.3371964E0,1.4822098E1,1.0496309E1,6.1833594E2,1.2147522E1,6.4740753E0,1.5677269E1,6.9434357E0,1.3694061E1,1.407103E1,2.4585306E1,4.7889648E2,1.6270004E1,2.0374298E1,1.7830042E1,6.4729443E2,2.2591404E1,6.6576685E2,1.1523328E4,0E0,0E0,0E0,0E0,0E0,0E0,0E0,0E0,0E0,0E0,0E0,0E0,0E0,0E0,0E0,0E0,0E0,0E0,0E0,0E0,0E0,0E0,0E0,0E0,0E0,0E0,0E0,0E0,0E0,0E0,0E0,0E0,0E0,0E0,0E0,0E0,0E0,0E0,0E0,0E0,0E0,0E0,0E0,0E0,0E0,0E0,0E0,0E0,0E0,0E0,0E0,0E0,0E0,0E0,0E0,0E0,0E0,0E0,0E0,0E0,0E0,0E0,0E0,0E0],"parents":[2147483647,0,0,1,1,2,2,3,3,4,4,5,5,6,6,7,7,8,8,9,9,10,10,11,11,12,12,13,13,14,14,15,15,16,16,17,17,18,18,19,19,20,20,21,21,22,22,23,23,24,24,25,25,26,26,27,27,28,28,29,29,30,30,31,31,32,32,33,33,34,34,35,35,36,36,37,37,38,38,39,39,40,40,41,41,42,42,43,43,44,44,45,45,46,46,47,47,48,48,49,49,50,50,51,51,52,52,53,53,54,54,55,55,56,56,57,57,58,58,59,59,60,60,61,61,62,62],"right_children":[2,4,6,8,10,12,14,16,18,20,22,24,26,28,30,32,34,36,38,40,42,44,46,48,50,52,54,56,58,60,62,64,66,68,70,72,74,76,78,80,82,84,86,88,90,92,94,96,98,100,102,104,106,108,110,112,114,116,118,120,122,124,126,-1,-1,-1,-1,-1,-1,-1,-1,-1,-1,-1,-1,-1,-1,-1,-1,-1,-1,-1,-1,-1,-1,-1,-1,-1,-1,-1,-1,-1,-1,-1,-1,-1,-1,-1,-1,-1,-1,-1,-1,-1,-1,-1,-1,-1,-1,-1,-1,-1,-1,-1,-1,-1,-1,-1,-1,-1,-1,-1,-1,-1,-1,-1,-1],"split_conditions":[5E-1,1E0,5E-1,1E0,5E-1,1E0,5E-1,1E0,5E-1,5E-1,5E-1,1E0,5E-1,1E0,5E-1,1E0,5E-1,5E-1,5E-1,1E0,1E0,1E0,1E0,1E0,5E-1,5E-1,5E-1,1E0,1E0,1E0,5E-1,1E0,5E-1,1E0,1E0,1E0,5E-1,1E0,1E0,1E0,1E0,1E0,5E-1,1E0,1E0,1E0,5E-1,1E0,1E0,1E0,1E0,5E-1,1E0,5E-1,1E0,1E0,1E0,1E0,1E0,1E0,5E-1,1E0,5E-1,-8.719404E-2,-3.595365E-2,-4.039491E-2,-2.9948449E-2,-3.8364653E-2,-2.6975801E-2,-2.6950682E-2,-1.5926545E-2,-4.2642158E-2,-3.0692905E-2,-3.6012586E-2,-2.4763407E-2,-3.0235145E-2,-1.9627554E-2,-2.0213425E-2,-7.024503E-3,-4.329894E-2,-3.3683125E-2,-3.4275945E-2,-2.3037158E-2,-3.229774E-2,-2.0901332E-2,-2.6459694E-2,-1.3309672E-2,-3.3394005E-2,-2.2760963E-2,-2.095228E-2,-6.407659E-3,-1.9567875E-2,-8.195168E-3,-1.2871983E-2,2.8923998E-4,-8.004823E-2,-2.8448904E-2,-2.7374906E-2,-1.5152271E-2,-3.2761883E-2,-2.0049771E-2,-2.1104688E-2,-7.881637E-3,-3.6960114E-2,-2.4222841E-2,-2.1387957E-2,-8.919111E-3,-2.5682408E-2,-1.3378448E-2,-9.690742E-3,2.014656E-3,-7.226665E-2,-2.1464426E-2,-2.0956766E-2,-9.879132E-3,-1.797085E-2,-5.408856E-3,-6.513377E-3,5.1715723E-3,-6.296838E-2,-1.6642954E-2,-1.0648002E-2,7.66717E-4,-4.550487E-2,-1.6039802E-3,-2.1599153E-2,9.118088E-2],"split_indices":[4,50,50,2,2,4,21,5,5,5,5,48,21,4,16,7,50,16,50,48,48,48,9,2,16,48,2,50,50,4,48,9,16,9,21,24,9,47,16,9,22,16,21,2,21,14,21,16,16,21,2,47,2,16,16,26,16,48,9,50,15,4,43,0,0,0,0,0,0,0,0,0,0,0,0,0,0,0,0,0,0,0,0,0,0,0,0,0,0,0,0,0,0,0,0,0,0,0,0,0,0,0,0,0,0,0,0,0,0,0,0,0,0,0,0,0,0,0,0,0,0,0,0,0,0,0,0],"split_type":[0,0,0,0,0,0,0,0,0,0,0,0,0,0,0,0,0,0,0,0,0,0,0,0,0,0,0,0,0,0,0,0,0,0,0,0,0,0,0,0,0,0,0,0,0,0,0,0,0,0,0,0,0,0,0,0,0,0,0,0,0,0,0,0,0,0,0,0,0,0,0,0,0,0,0,0,0,0,0,0,0,0,0,0,0,0,0,0,0,0,0,0,0,0,0,0,0,0,0,0,0,0,0,0,0,0,0,0,0,0,0,0,0,0,0,0,0,0,0,0,0,0,0,0,0,0,0],"sum_hessian":[1.2E5,3.2847E4,8.7153E4,2.8423E4,4.424E3,1.8741E4,6.8412E4,2.5482E4,2.941E3,1.458E3,2.966E3,1.4187E4,4.554E3,1.0974E4,5.7438E4,2.3529E4,1.953E3,1.003E3,1.938E3,5.2E2,9.38E2,9.68E2,1.998E3,1.2702E4,1.485E3,1.497E3,3.057E3,8.093E3,2.881E3,6.399E3,5.1039E4,2.219E4,1.339E3,9.8E2,9.73E2,3.31E2,6.72E2,9.53E2,9.85E2,3.38E2,1.82E2,6.34E2,3.04E2,6.48E2,3.2E2,1.328E3,6.7E2,1.1762E4,9.4E2,4.81E2,1.004E3,5.02E2,9.95E2,1.067E3,1.99E3,6.631E3,1.462E3,1.447E3,1.434E3,4.44E3,1.959E3,3.797E3,4.7242E4,2.1355E4,8.35E2,4.6E2,8.79E2,6.66E2,3.14E2,6.52E2,3.21E2,2.32E2,9.9E1,2.3E2,4.42E2,6.32E2,3.21E2,6.6E2,3.25E2,2.25E2,1.13E2,1.19E2,6.3E1,4.17E2,2.17E2,9.8E1,2.06E2,3.27E2,3.21E2,1.98E2,1.22E2,9.06E2,4.22E2,2.3E2,4.4E2,1.1148E4,6.14E2,6.34E2,3.06E2,3.27E2,1.54E2,6.63E2,3.41E2,1.67E2,3.35E2,6.62E2,3.33E2,3.46E2,7.21E2,1.308E3,6.82E2,6.128E3,5.03E2,9.48E2,5.14E2,9.59E2,4.88E2,9.33E2,5.01E2,3.476E3,9.64E2,6.46E2,1.313E3,2.469E3,1.328E3,2.385E3,4.4857E4],"tree_param":{"num_deleted":"0","num_feature":"52","num_nodes":"127","size_leaf_vector":"1"}},{"base_weights":[-2.9038914E-5,-4.8174298E-1,1.2269958E0,-8.589058E-1,8.5009265E-1,-2.560927E-1,1.457705E0,-1.1450245E0,6.0917014E-1,-3.962785E-1,1.2278312E0,-3.306916E-1,-1.10970184E-1,-1.676035E-1,1.6392201E0,-1.3400992E0,3.5019365E-1,-4.5906952E-1,1.0009375E0,-5.8890843E-1,-3.0031833E-1,-3.5798103E-1,1.4097795E0,-4.0502805E-1,-1.8411183E-1,-2.508723E-1,-3.4485716E-2,-3.321023E-1,-8.775942E-2,-8.3571464E-2,1.7793586E0,-1.4622523E0,1.3712181E-1,-5.7156515E-1,7.491108E-1,-6.396747E-1,-3.709088E-1,-3.675236E-1,1.3004483E0,-6.6025555E-1,-4.4486672E-1,-3.774308E-1,-1.4452797E-1,-4.4263253E-1,-1.7938751E-1,-3.177434E-1,1.5481843E0,-5.625313E-1,-3.2709262E-1,-3.553869E-1,-1.0021342E-1,-3.2605734E-1,-9.317942E-2,-1.9273207E-1,4.281033E-2,-4.4461352E-1,-2.1163517E-1,-1.7023341E-1,7.694739E-2,-1.9806924E-1,3.7545558E-2,-3.9598975E-2,1.8809305E0,-7.6944135E-2,-3.725937E-3,-3.0098293E-2,2.6805982E-2,-3.695968E-2,-2.4772746E-2,-2.416662E-2,5.4328263E-2,-3.9381634E-2,-2.8609369E-2,-2.565279E-2,-1.4868724E-2,-2.2904845E-2,-9.522065E-3,-1.9793577E-2,7.229322E-2,-3.6449295E-2,-2.5631292E-2,-2.9936269E-2,-1.8317085E-2,-2.601525E-2,-1.5236298E-2,-1.187977E-2,1.8094032E-3,-2.8728185E-2,-1.8858856E-2,-1.3464267E-2,-7.8515284E-4,-2.1133384E-2,-5.131967E-3,-1.2488282E-2,8.2603335E-2,-3.2052256E-2,-2.0038115E-2,-2.429699E-2,-1.2753357E-2,-2.6168814E-2,-1.32183945E-2,-9.84837E-3,3.4414243E-3,-1.9874139E-2,-7.89874E-3,-1.4982504E-2,-4.2412263E-5,-1.6579574E-2,-5.675229E-3,-2.5281839E-3,1.0068745E-2,-2.5777051E-2,-1.4187576E-2,-1.4694998E-2,-2.4705396E-3,-1.2723865E-2,-3.5794123E-4,-7.3499506E-4,1.3057098E-2,-1.3391013E-2,-2.8682826E-3,-2.3479897E-3,9.7455E-3,-5.9175026E-3,5.2997693E-3,1.3147934E-3,9.764649E-2],"categories":[],"categories_nodes":[],"categories_segments":[],"categories_sizes":[],"default_left":[0,0,0,0,0,0,0,0,0,0,0,0,0,0,0,0,0,0,0,0,0,0,0,0,0,0,0,0,0,0,0,0,0,0,0,0,0,0,0,0,0,0,0,0,0,0,0,0,0,0,0,0,0,0,0,0,0,0,0,0,0,0,0,0,0,0,0,0,0,0,0,0,0,0,0,0,0,0,0,0,0,0,0,0,0,0,0,0,0,0,0,0,0,0,0,0,0,0,0,0,0,0,0,0,0,0,0,0,0,0,0,0,0,0,0,0,0,0,0,0,0,0,0,0,0,0,0],"id":5,"left_children":[1,3,5,7,9,11,13,15,17,19,21,23,25,27,29,31,33,35,37,39,41,43,45,47,49,51,53,55,57,59,61,63,65,67,69,71,73,75,77,79,81,83,85,87,89,91,93,95,97,99,101,103,105,107,109,111,113,115,117,119,121,123,125,-1,-1,-1,-1,-1,-1,-1,-1,-1,-1,-1,-1,-1,-1,-1,-1,-1,-1,-1,-1,-1,-1,-1,-1,-1,-1,-1,-1,-1,-1,-1,-1,-1,-1,-1,-1,-1,-1,-1,-1,-1,-1,-1,-1,-1,-1,-1,-1,-1,-1,-1,-1,-1,-1,-1,-1,-1,-1,-1,-1,-1,-1,-1,-1],"loss_changes":[7.093018E4,4.3286555E4,1.1575723E4,2.8208742E4,8.954211E3,4.9275635E1,8.637223E3,1.6393438E4,4.5847246E3,8.1599915E1,4.2116836E3,3.2701233E1,1.6555475E1,3.861183E1,6.3581875E3,8.971305E3,2.3857332E3,4.657428E1,3.2855762E3,1.4813446E1,3.5444946E1,2.2643265E1,3.1309922E3,2.430478E1,1.4535271E1,6.4549294E0,1.2264532E1,1.2931198E1,2.6936642E1,2.7493078E1,4.4996016E3,4.883039E3,1.1203314E3,2.4639954E1,1.8836909E3,9.165161E0,2.0522858E1,2.3008804E1,1.6226895E3,9.580139E0,5.7007294E0,2.0367462E1,1.6490997E1,8.582962E0,7.1324873E0,2.1894295E1,2.264504E3,8.113113E0,1.51727295E1,4.953285E0,1.1167992E1,4.3791924E0,3.3930802E0,3.58185E0,9.989298E0,5.5128555E0,6.2044144E0,1.8146122E1,1.1179016E1,9.985329E0,1.2828555E1,1.4791849E1,3.0799922E3,0E0,0E0,0E0,0E0,0E0,0E0,0E0,0E0,0E0,0E0,0E0,0E0,0E0,0E0,0E0,0E0,0E0,0E0,0E0,0E0,0E0,0E0,0E0,0E0,0E0,0E0,0E0,0E0,0E0,0E0,0E0,0E0,0E0,0E0,0E0,0E0,0E0,0E0,0E0,0E0,0E0,0E0,0E0,0E0,0E0,0E0,0E0,0E0,0E0,0E0,0E0,0E0,0E0,0E0,0E0,0E0,0E0,0E0,0E0,0E0,0E0,0E0,0E0,0E0],"parents":[2147483647,0,0,1,1,2,2,3,3,4,4,5,5,6,6,7,7,8,8,9,9,10,10,11,11,12,12,13,13,14,14,15,15,16,16,17,17,18,18,19,19,20,20,21,21,22,22,23,23,24,24,25,25,26,26,27,27,28,28,29,29,30,30,31,31,32,32,33,33,34,34,35,35,36,36,37,37,38,38,39,39,40,40,41,41,42,42,43,43,44,44,45,45,46,46,47,47,48,48,49,49,50,50,51,51,52,52,53,53,54,54,55,55,56,56,57,57,58,58,59,59,60,60,61,61,62,62],"right_children":[2,4,6,8,10,12,14,16,18,20,22,24,26,28,30,32,34,36,38,40,42,44,46,48,50,52,54,56,58,60,62,64,66,68,70,72,74,76,78,80,82,84,86,88,90,92,94,96,98,100,102,104,106,108,110,112,114,116,118,120,122,124,126,-1,-1,-1,-1,-1,-1,-1,-1,-1,-1,-1,-1,-1,-1,-1,-1,-1,-1,-1,-1,-1,-1,-1,-1,-1,-1,-1,-1,-1,-1,-1,-1,-1,-1,-1,-1,-1,-1,-1,-1,-1,-1,-1,-1,-1,-1,-1,-1,-1,-1,-1,-1,-1,-1,-1,-1,-1,-1,-1,-1,-1,-1,-1,-1],"split_conditions":[1E0,1E0,5E-1,1E0,5E-1,1E0,5E-1,1E0,5E-1,5E-1,5E-1,1E0,5E-1,5E-1,5E-1,1E0,5E-1,5E-1,5E-1,1E0,1E0,1E0,5E-1,5E-1,5E-1,1E0,5E-1,1E0,1E0,1E0,5E-1,1E0,5E-1,5E-1,5E-1,5E-1,5E-1,1E0,5E-1,1E0,5E-1,5E-1,1E0,5E-1,1E0,1E0,5E-1,1E0,5E-1,5E-1,1E0,1E0,5E-1,5E-1,1E0,1E0,1E0,1E0,1E0,1E0,1E0,1E0,5E-1,-7.6944135E-2,-3.725937E-3,-3.0098293E-2,2.6805982E-2,-3.695968E-2,-2.4772746E-2,-2.416662E-2,5.4328263E-2,-3.9381634E-2,-2.8609369E-2,-2.565279E-2,-1.4868724E-2,-2.2904845E-2,-9.522065E-3,-1.9793577E-2,7.229322E-2,-3.6449295E-2,-2.5631292E-2,-2.9936269E-2,-1.8317085E-2,-2.601525E-2,-1.5236298E-2,-1.187977E-2,1.8094032E-3,-2.8728185E-2,-1.8858856E-2,-1.3464267E-2,-7.8515284E-4,-2.1133384E-2,-5.131967E-3,-1.2488282E-2,8.2603335E-2,-3.2052256E-2,-2.0038115E-2,-2.429699E-2,-1.2753357E-2,-2.6168814E-2,-1.32183945E-2,-9.84837E-3,3.4414243E-3,-1.9874139E-2,-7.89874E-3,-1.4982504E-2,-4.2412263E-5,-1.6579574E-2,-5.675229E-3,-2.5281839E-3,1.0068745E-2,-2.5777051E-2,-1.4187576E-2,-1.4694998E-2,-2.4705396E-3,-1.2723865E-2,-3.5794123E-4,-7.3499506E-4,1.3057098E-2,-1.3391013E-2,-2.8682826E-3,-2.3479897E-3,9.7455E-3,-5.9175026E-3,5.2997693E-3,1.3147934E-3,9.764649E-2],"split_indices":[4,5,50,2,4,5,5,3,4,50,46,48,48,9,20,0,4,50,5,2,2,50,47,16,51,51,21,50,14,50,51,25,4,50,2,51,9,50,15,9,9,21,21,15,51,50,7,28,47,21,47,26,2,47,7,2,3,26,48,14,47,9,24,0,0,0,0,0,0,0,0,0,0,0,0,0,0,0,0,0,0,0,0,0,0,0,0,0,0,0,0,0,0,0,0,0,0,0,0,0,0,0,0,0,0,0,0,0,0,0,0,0,0,0,0,0,0,0,0,0,0,0,0,0,0,0,0],"split_type":[0,0,0,0,0,0,0,0,0,0,0,0,0,0,0,0,0,0,0,0,0,0,0,0,0,0,0,0,0,0,0,0,0,0,0,0,0,0,0,0,0,0,0,0,0,0,0,0,0,0,0,0,0,0,0,0,0,0,0,0,0,0,0,0,0,0,0,0,0,0,0,0,0,0,0,0,0,0,0,0,0,0,0,0,0,0,0,0,0,0,0,0,0,0,0,0,0,0,0,0,0,0,0,0,0,0,0,0,0,0,0,0,0,0,0,0,0,0,0,0,0,0,0,0,0,0,0],"sum_hessian":[1.2E5,8.6171E4,3.3829E4,6.7154E4,1.9017E4,4.554E3,2.9275E4,5.6201E4,1.0953E4,4.423E3,1.4594E4,3.007E3,1.547E3,2.941E3,2.6334E4,4.9715E4,6.486E3,2.939E3,8.014E3,1.469E3,2.954E3,1.502E3,1.3092E4,1.994E3,1.013E3,5.46E2,1.001E3,9.6E2,1.981E3,1.981E3,2.4353E4,4.5918E4,3.797E3,1.959E3,4.527E3,9.62E2,1.977E3,1.439E3,6.575E3,9.8E2,4.89E2,1.975E3,9.79E2,1.018E3,4.84E2,9.71E2,1.2121E4,6.58E2,1.336E3,3.32E2,6.81E2,3.69E2,1.77E2,3.28E2,6.73E2,4.95E2,4.65E2,1.32E3,6.61E2,1.018E3,9.63E2,1.288E3,2.3065E4,4.3515E4,2.403E3,1.331E3,2.466E3,6.09E2,1.35E3,9.73E2,3.554E3,2.98E2,6.64E2,6.72E2,1.305E3,9.51E2,4.88E2,5.19E2,6.056E3,6.66E2,3.14E2,1.63E2,3.26E2,6.64E2,1.311E3,6.46E2,3.33E2,3.35E2,6.83E2,3.12E2,1.72E2,6.52E2,3.19E2,6.62E2,1.1459E4,4.41E2,2.17E2,4.15E2,9.21E2,1.15E2,2.17E2,4.33E2,2.48E2,2.58E2,1.11E2,5.4E1,1.23E2,1.18E2,2.1E2,4.24E2,2.49E2,3.42E2,1.53E2,3.08E2,1.57E2,8.7E2,4.5E2,4.42E2,2.19E2,6.8E2,3.38E2,6.27E2,3.36E2,8.36E2,4.52E2,8.62E2,2.2203E4],"tree_param":{"num_deleted":"0","num_feature":"52","num_nodes":"127","size_leaf_vector":"1"}},{"base_weights":[-3.213501E-5,-1.1902233E0,4.4854623E-1,-1.319326E0,-3.606626E-1,-9.937021E-1,8.436491E-1,-1.4194276E0,-4.5181787E-1,-5.240001E-1,-2.8022107E-1,-1.2345359E0,-2.433303E-1,-8.376656E-1,1.164887E0,-1.496065E0,-5.251528E-1,-6.0529083E-1,-3.7414423E-1,-6.6339606E-1,-4.4609883E-1,-4.273736E-1,-2.0874983E-1,-1.33336E0,-3.8891286E-1,-3.8627976E-1,-1.7231554E-1,-1.0756196E0,-1.6908945E-1,-7.069101E-1,1.397346E0,-1.5495728E0,-6.005669E-1,-6.7415273E-1,-4.4537723E-1,-6.8199617E-1,-4.4327688E-1,-4.4921654E-1,-2.3068438E-1,-7.905289E-1,-6.001121E-1,-5.844747E-1,-3.7429854E-1,-5.0682056E-1,-2.6541573E-1,-2.8285587E-1,-6.1662354E-2,-1.4026009E0,-4.3768218E-1,-5.378163E-1,-3.0914792E-1,-5.340541E-1,-3.117889E-1,-2.504727E-1,-2.9881023E-2,-1.2400459E0,-3.295148E-1,-2.4664538E-1,-1.5723998E-2,-1.0013179E0,-6.8060994E-2,-5.72778E-1,1.5568703E0,-7.933638E-2,-3.2332208E-2,-3.3750545E-2,-2.2836996E-2,-4.1034978E-2,-2.9545704E-2,-2.5595238E-2,-1.609966E-2,-4.096755E-2,-3.0542735E-2,-2.6561338E-2,-1.4306985E-2,-2.7955E-2,-1.7166926E-2,-1.9500587E-2,-6.7610308E-3,-4.2686433E-2,-3.2143082E-2,-3.309357E-2,-2.3759753E-2,-3.806544E-2,-2.4517717E-2,-2.6901333E-2,-1.4847891E-2,-2.851208E-2,-1.792059E-2,-1.8575637E-2,-4.580248E-3,-1.756592E-2,-6.7694685E-3,-1.1141132E-2,1.1447379E-3,-7.263921E-2,-2.548793E-2,-2.5046203E-2,-1.5560739E-2,-3.5136055E-2,-2.2678299E-2,-2.3463665E-2,-1.1442764E-2,-3.0501401E-2,-1.8690228E-2,-1.9439863E-2,-8.493765E-3,-1.6374918E-2,-5.472622E-3,-1.0116401E-2,2.601545E-3,-6.568007E-2,-2.0051926E-2,-2.0189563E-2,-9.600221E-3,-1.7469563E-2,-7.0349746E-3,-5.015736E-3,8.094284E-3,-5.9588887E-2,-1.5889047E-2,-9.353943E-3,2.515702E-3,-4.127798E-2,-3.6527482E-3,-2.4061961E-2,8.304923E-2],"categories":[],"categories_nodes":[],"categories_segments":[],"categories_sizes":[],"default_left":[0,0,0,0,0,0,0,0,0,0,0,0,0,0,0,0,0,0,0,0,0,0,0,0,0,0,0,0,0,0,0,0,0,0,0,0,0,0,0,0,0,0,0,0,0,0,0,0,0,0,0,0,0,0,0,0,0,0,0,0,0,0,0,0,0,0,0,0,0,0,0,0,0,0,0,0,0,0,0,0,0,0,0,0,0,0,0,0,0,0,0,0,0,0,0,0,0,0,0,0,0,0,0,0,0,0,0,0,0,0,0,0,0,0,0,0,0,0,0,0,0,0,0,0,0,0,0],"id":6,"left_children":[1,3,5,7,9,11,13,15,17,19,21,23,25,27,29,31,33,35,37,39,41,43,45,47,49,51,53,55,57,59,61,63,65,67,69,71,73,75,77,79,81,83,85,87,89,91,93,95,97,99,101,103,105,107,109,111,113,115,117,119,121,123,125,-1,-1,-1,-1,-1,-1,-1,-1,-1,-1,-1,-1,-1,-1,-1,-1,-1,-1,-1,-1,-1,-1,-1,-1,-1,-1,-1,-1,-1,-1,-1,-1,-1,-1,-1,-1,-1,-1,-1,-1,-1,-1,-1,-1,-1,-1,-1,-1,-1,-1,-1,-1,-1,-1,-1,-1,-1,-1,-1,-1,-1,-1,-1,-1],"loss_changes":[6.4068348E4,3.517496E3,4.9664367E4,2.4676719E3,5.7993713E1,3.3866582E3,3.6950973E4,1.7456836E3,3.4844543E1,1.5547546E1,3.111525E1,1.1851406E3,4.6173645E1,1.745835E3,2.4993617E4,1.1237148E3,2.362732E1,1.1963501E1,2.096222E1,3.71727E0,9.110596E0,1.2333664E1,2.1771805E1,7.8719727E2,1.7483368E1,1.646634E1,3.3890297E1,9.925576E2,3.427578E1,1.193501E3,1.6058852E4,7.4196484E2,1.387854E1,8.053894E0,1.0621094E1,6.026947E0,4.270462E0,1.4734772E1,1.0198795E1,1.0377121E0,2.4010925E0,4.9360275E0,7.7038574E0,5.9041595E0,5.8854637E0,1.3369911E1,9.148985E0,5.2756445E2,7.1463165E0,6.86409E0,1.2363785E1,5.920227E0,1.093898E1,2.1319191E1,1.5266029E1,4.087578E2,1.4865234E1,2.0785683E1,1.457462E1,5.651504E2,2.822916E1,4.834956E2,1.003068E4,0E0,0E0,0E0,0E0,0E0,0E0,0E0,0E0,0E0,0E0,0E0,0E0,0E0,0E0,0E0,0E0,0E0,0E0,0E0,0E0,0E0,0E0,0E0,0E0,0E0,0E0,0E0,0E0,0E0,0E0,0E0,0E0,0E0,0E0,0E0,0E0,0E0,0E0,0E0,0E0,0E0,0E0,0E0,0E0,0E0,0E0,0E0,0E0,0E0,0E0,0E0,0E0,0E0,0E0,0E0,0E0,0E0,0E0,0E0,0E0,0E0,0E0,0E0,0E0],"parents":[2147483647,0,0,1,1,2,2,3,3,4,4,5,5,6,6,7,7,8,8,9,9,10,10,11,11,12,12,13,13,14,14,15,15,16,16,17,17,18,18,19,19,20,20,21,21,22,22,23,23,24,24,25,25,26,26,27,27,28,28,29,29,30,30,31,31,32,32,33,33,34,34,35,35,36,36,37,37,38,38,39,39,40,40,41,41,42,42,43,43,44,44,45,45,46,46,47,47,48,48,49,49,50,50,51,51,52,52,53,53,54,54,55,55,56,56,57,57,58,58,59,59,60,60,61,61,62,62],"right_children":[2,4,6,8,10,12,14,16,18,20,22,24,26,28,30,32,34,36,38,40,42,44,46,48,50,52,54,56,58,60,62,64,66,68,70,72,74,76,78,80,82,84,86,88,90,92,94,96,98,100,102,104,106,108,110,112,114,116,118,120,122,124,126,-1,-1,-1,-1,-1,-1,-1,-1,-1,-1,-1,-1,-1,-1,-1,-1,-1,-1,-1,-1,-1,-1,-1,-1,-1,-1,-1,-1,-1,-1,-1,-1,-1,-1,-1,-1,-1,-1,-1,-1,-1,-1,-1,-1,-1,-1,-1,-1,-1,-1,-1,-1,-1,-1,-1,-1,-1,-1,-1,-1,-1,-1,-1,-1],"split_conditions":[5E-1,1E0,5E-1,1E0,5E-1,1E0,5E-1,1E0,5E-1,5E-1,5E-1,1E0,5E-1,1E0,5E-1,1E0,5E-1,1E0,1E0,5E-1,5E-1,1E0,1E0,1E0,5E-1,5E-1,1E0,1E0,1E0,1E0,5E-1,1E0,1E0,5E-1,1E0,5E-1,1E0,5E-1,5E-1,1E0,1E0,5E-1,5E-1,1E0,1E0,1E0,5E-1,1E0,1E0,5E-1,5E-1,1E0,1E0,1E0,5E-1,1E0,1E0,1E0,1E0,1E0,1E0,1E0,5E-1,-7.933638E-2,-3.2332208E-2,-3.3750545E-2,-2.2836996E-2,-4.1034978E-2,-2.9545704E-2,-2.5595238E-2,-1.609966E-2,-4.096755E-2,-3.0542735E-2,-2.6561338E-2,-1.4306985E-2,-2.7955E-2,-1.7166926E-2,-1.9500587E-2,-6.7610308E-3,-4.2686433E-2,-3.2143082E-2,-3.309357E-2,-2.3759753E-2,-3.806544E-2,-2.4517717E-2,-2.6901333E-2,-1.4847891E-2,-2.851208E-2,-1.792059E-2,-1.8575637E-2,-4.580248E-3,-1.756592E-2,-6.7694685E-3,-1.1141132E-2,1.1447379E-3,-7.263921E-2,-2.548793E-2,-2.5046203E-2,-1.5560739E-2,-3.5136055E-2,-2.2678299E-2,-2.3463665E-2,-1.1442764E-2,-3.0501401E-2,-1.8690228E-2,-1.9439863E-2,-8.493765E-3,-1.6374918E-2,-5.472622E-3,-1.0116401E-2,2.601545E-3,-6.568007E-2,-2.0051926E-2,-2.0189563E-2,-9.600221E-3,-1.7469563E-2,-7.0349746E-3,-5.015736E-3,8.094284E-3,-5.9588887E-2,-1.5889047E-2,-9.353943E-3,2.515702E-3,-4.127798E-2,-3.6527482E-3,-2.4061961E-2,8.304923E-2],"split_indices":[4,50,50,47,2,4,21,48,5,5,5,48,51,4,2,51,2,51,16,48,16,48,9,47,51,5,47,50,16,4,14,1,9,9,26,2,2,50,15,21,22,0,9,7,21,14,21,16,2,5,21,2,26,16,21,20,16,50,26,50,50,4,9,0,0,0,0,0,0,0,0,0,0,0,0,0,0,0,0,0,0,0,0,0,0,0,0,0,0,0,0,0,0,0,0,0,0,0,0,0,0,0,0,0,0,0,0,0,0,0,0,0,0,0,0,0,0,0,0,0,0,0,0,0,0,0,0],"split_type":[0,0,0,0,0,0,0,0,0,0,0,0,0,0,0,0,0,0,0,0,0,0,0,0,0,0,0,0,0,0,0,0,0,0,0,0,0,0,0,0,0,0,0,0,0,0,0,0,0,0,0,0,0,0,0,0,0,0,0,0,0,0,0,0,0,0,0,0,0,0,0,0,0,0,0,0,0,0,0,0,0,0,0,0,0,0,0,0,0,0,0,0,0,0,0,0,0,0,0,0,0,0,0,0,0,0,0,0,0,0,0,0,0,0,0,0,0,0,0,0,0,0,0,0,0,0,0],"sum_hessian":[1.2E5,3.2847E4,8.7153E4,2.8423E4,4.424E3,1.8741E4,6.8412E4,2.5482E4,2.941E3,1.458E3,2.966E3,1.4187E4,4.554E3,1.0974E4,5.7438E4,2.347E4,2.012E3,9.86E2,1.955E3,5.2E2,9.38E2,9.68E2,1.998E3,1.2702E4,1.485E3,1.51E3,3.044E3,8.093E3,2.881E3,6.345E3,5.1093E4,2.2146E4,1.324E3,6.99E2,1.313E3,6.67E2,3.19E2,1.282E3,6.73E2,1.69E2,3.51E2,3.18E2,6.2E2,6.48E2,3.2E2,1.328E3,6.7E2,1.179E4,9.12E2,5.16E2,9.69E2,5.04E2,1.006E3,1.965E3,1.079E3,6.631E3,1.462E3,1.913E3,9.68E2,4.343E3,2.002E3,3.827E3,4.7266E4,2.127E4,8.76E2,8.7E2,4.54E2,2.5E2,4.49E2,8.51E2,4.62E2,2.24E2,4.43E2,2.03E2,1.16E2,6.27E2,6.55E2,2.51E2,4.22E2,1.15E2,5.4E1,2.32E2,1.19E2,1.08E2,2.1E2,1.97E2,4.23E2,4.52E2,1.96E2,1.98E2,1.22E2,9.06E2,4.22E2,2.3E2,4.4E2,1.1162E4,6.28E2,6.06E2,3.06E2,1.72E2,3.44E2,3.22E2,6.47E2,3.4E2,1.64E2,6.51E2,3.55E2,1.27E3,6.95E2,3.47E2,7.32E2,6.096E3,5.35E2,9.48E2,5.14E2,9.7E2,9.43E2,6.56E2,3.12E2,3.396E3,9.47E2,9.98E2,1.004E3,2.541E3,1.286E3,2.297E3,4.4969E4],"tree_param":{"num_deleted":"0","num_feature":"52","num_nodes":"127","size_leaf_vector":"1"}},{"base_weights":[-4.1742303E-5,-4.3746358E-1,1.1141621E0,-7.8106886E-1,7.7382976E-1,-2.3118721E-1,1.3234445E0,-1.0412569E0,5.435249E-1,-3.427063E-1,1.1117392E0,-3.695479E-1,-1.5906642E-1,-1.9061406E-1,1.4907488E0,-1.2193584E0,3.4030432E-1,-4.4460702E-1,9.0604216E-1,-4.2038485E-1,-1.857918E-1,-3.6509615E-1,1.2728844E0,-5.260478E-1,-2.9369652E-1,-3.0303064E-1,-8.6245194E-2,-2.6940918E-1,-3.3878054E-2,-1.18196845E-1,1.62105E0,-1.3321092E0,1.3716227E-1,-4.9070126E-1,7.139073E-1,-5.133073E-1,-3.0971348E-1,-3.246531E-1,1.1822785E0,-5.6052446E-1,-3.4637612E-1,-2.6128966E-1,-2.8550329E-2,-4.381183E-1,-2.131354E-1,-2.5671595E-1,1.4033843E0,-6.0364264E-1,-3.7095764E-1,-3.787971E-1,-1.1566927E-1,-4.4335163E-1,-2.3104838E-1,-1.6094293E-1,6.1604343E-2,-3.761609E-1,-1.6303883E-1,-1.1949922E-1,1.4201878E-1,-2.329114E-1,1.4985901E-3,-6.595411E-2,1.7158874E0,-7.0082255E-2,-1.8714995E-3,-2.706532E-2,2.3957526E-2,-2.7856028E-2,-1.8302811E-2,-2.250964E-2,5.0704252E-2,-3.2577064E-2,-2.2395073E-2,-1.9305749E-2,-7.2957478E-3,-2.354773E-2,-1.2483909E-2,-2.0359686E-2,6.563236E-2,-3.164713E-2,-2.1173554E-2,-2.0774467E-2,-1.0590679E-2,-1.651701E-2,-5.840083E-3,-6.2706084E-3,7.6002027E-3,-2.5641844E-2,-1.4736684E-2,-1.5487884E-2,-1.5776366E-3,-1.6660016E-2,-5.4420633E-3,-1.1762801E-2,7.49163E-2,-3.7206054E-2,-2.6614567E-2,-2.7318034E-2,-1.4729639E-2,-2.271983E-2,-1.1906835E-2,-1.7964447E-2,-4.5875373E-4,-3.0572256E-2,-1.7960196E-2,-1.8256005E-2,-7.815196E-3,-1.632066E-2,-4.482453E-3,-5.139735E-3,7.1466216E-3,-2.2383457E-2,-1.1085381E-2,-1.22006545E-2,3.0440275E-4,-9.989629E-3,1.8831335E-3,6.972304E-4,1.7767977E-2,-1.5001846E-2,-5.199298E-3,-4.0803193E-3,8.541502E-3,-6.811411E-3,3.5071322E-3,3.4586352E-4,8.910804E-2],"categories":[],"categories_nodes":[],"categories_segments":[],"categories_sizes":[],"default_left":[0,0,0,0,0,0,0,0,0,0,0,0,0,0,0,0,0,0,0,0,0,0,0,0,0,0,0,0,0,0,0,0,0,0,0,0,0,0,0,0,0,0,0,0,0,0,0,0,0,0,0,0,0,0,0,0,0,0,0,0,0,0,0,0,0,0,0,0,0,0,0,0,0,0,0,0,0,0,0,0,0,0,0,0,0,0,0,0,0,0,0,0,0,0,0,0,0,0,0,0,0,0,0,0,0,0,0,0,0,0,0,0,0,0,0,0,0,0,0,0,0,0,0,0,0,0,0],"id":7,"left_children":[1,3,5,7,9,11,13,15,17,19,21,23,25,27,29,31,33,35,37,39,41,43,45,47,49,51,53,55,57,59,61,63,65,67,69,71,73,75,77,79,81,83,85,87,89,91,93,95,97,99,101,103,105,107,109,111,113,115,117,119,121,123,125,-1,-1,-1,-1,-1,-1,-1,-1,-1,-1,-1,-1,-1,-1,-1,-1,-1,-1,-1,-1,-1,-1,-1,-1,-1,-1,-1,-1,-1,-1,-1,-1,-1,-1,-1,-1,-1,-1,-1,-1,-1,-1,-1,-1,-1,-1,-1,-1,-1,-1,-1,-1,-1,-1,-1,-1,-1,-1,-1,-1,-1,-1,-1,-1],"loss_changes":[5.848622E4,3.5865977E4,9.525414E3,2.3136488E4,7.185076E3,4.5394104E1,7.4161367E3,1.3806492E4,3.9486472E3,5.3857788E1,3.4795664E3,1.8363846E1,3.1382874E1,3.5978867E1,5.527129E3,7.602039E3,1.9898177E3,2.7262756E1,2.7418428E3,3.049524E1,1.7407875E1,1.5874481E1,2.631459E3,5.88945E0,1.590937E1,1.0058792E1,2.1998566E1,2.1956436E1,1.4716011E1,2.7132425E1,3.9019805E3,4.1310938E3,8.854475E2,1.6254364E1,1.5453174E3,1.7420105E1,1.2470634E1,1.6105469E1,1.3652676E3,9.86557E0,1.7944809E1,9.848595E0,8.361234E0,1.0251648E1,8.218803E0,1.16923065E1,1.8898145E3,2.9817657E0,2.1429214E0,7.463089E0,8.869579E0,4.589554E0,6.627014E0,1.557819E1,8.959396E0,1.0580948E1,1.3326643E1,8.298243E0,8.7385435E0,8.700874E0,1.3635913E1,1.2433292E1,2.6151406E3,0E0,0E0,0E0,0E0,0E0,0E0,0E0,0E0,0E0,0E0,0E0,0E0,0E0,0E0,0E0,0E0,0E0,0E0,0E0,0E0,0E0,0E0,0E0,0E0,0E0,0E0,0E0,0E0,0E0,0E0,0E0,0E0,0E0,0E0,0E0,0E0,0E0,0E0,0E0,0E0,0E0,0E0,0E0,0E0,0E0,0E0,0E0,0E0,0E0,0E0,0E0,0E0,0E0,0E0,0E0,0E0,0E0,0E0,0E0,0E0,0E0,0E0,0E0,0E0],"parents":[2147483647,0,0,1,1,2,2,3,3,4,4,5,5,6,6,7,7,8,8,9,9,10,10,11,11,12,12,13,13,14,14,15,15,16,16,17,17,18,18,19,19,20,20,21,21,22,22,23,23,24,24,25,25,26,26,27,27,28,28,29,29,30,30,31,31,32,32,33,33,34,34,35,35,36,36,37,37,38,38,39,39,40,40,41,41,42,42,43,43,44,44,45,45,46,46,47,47,48,48,49,49,50,50,51,51,52,52,53,53,54,54,55,55,56,56,57,57,58,58,59,59,60,60,61,61,62,62],"right_children":[2,4,6,8,10,12,14,16,18,20,22,24,26,28,30,32,34,36,38,40,42,44,46,48,50,52,54,56,58,60,62,64,66,68,70,72,74,76,78,80,82,84,86,88,90,92,94,96,98,100,102,104,106,108,110,112,114,116,118,120,122,124,126,-1,-1,-1,-1,-1,-1,-1,-1,-1,-1,-1,-1,-1,-1,-1,-1,-1,-1,-1,-1,-1,-1,-1,-1,-1,-1,-1,-1,-1,-1,-1,-1,-1,-1,-1,-1,-1,-1,-1,-1,-1,-1,-1,-1,-1,-1,-1,-1,-1,-1,-1,-1,-1,-1,-1,-1,-1,-1,-1,-1,-1,-1,-1,-1],"split_conditions":[1E0,1E0,5E-1,1E0,5E-1,5E-1,5E-1,1E0,5E-1,1E0,5E-1,5E-1,5E-1,1E0,5E-1,1E0,5E-1,1E0,5E-1,5E-1,1E0,1E0,5E-1,1E0,1E0,5E-1,1E0,1E0,1E0,1E0,5E-1,1E0,5E-1,1E0,5E-1,5E-1,1E0,5E-1,5E-1,1E0,1E0,1E0,1E0,1E0,1E0,1E0,5E-1,5E-1,5E-1,1E0,5E-1,5E-1,5E-1,5E-1,5E-1,1E0,1E0,1E0,1E0,1E0,1E0,1E0,5E-1,-7.0082255E-2,-1.8714995E-3,-2.706532E-2,2.3957526E-2,-2.7856028E-2,-1.8302811E-2,-2.250964E-2,5.0704252E-2,-3.2577064E-2,-2.2395073E-2,-1.9305749E-2,-7.2957478E-3,-2.354773E-2,-1.2483909E-2,-2.0359686E-2,6.563236E-2,-3.164713E-2,-2.1173554E-2,-2.0774467E-2,-1.0590679E-2,-1.651701E-2,-5.840083E-3,-6.2706084E-3,7.6002027E-3,-2.5641844E-2,-1.4736684E-2,-1.5487884E-2,-1.5776366E-3,-1.6660016E-2,-5.4420633E-3,-1.1762801E-2,7.49163E-2,-3.7206054E-2,-2.6614567E-2,-2.7318034E-2,-1.4729639E-2,-2.271983E-2,-1.1906835E-2,-1.7964447E-2,-4.5875373E-4,-3.0572256E-2,-1.7960196E-2,-1.8256005E-2,-7.815196E-3,-1.632066E-2,-4.482453E-3,-5.139735E-3,7.1466216E-3,-2.2383457E-2,-1.1085381E-2,-1.22006545E-2,3.0440275E-4,-9.989629E-3,1.8831335E-3,6.972304E-4,1.7767977E-2,-1.5001846E-2,-5.199298E-3,-4.0803193E-3,8.541502E-3,-6.811411E-3,3.5071322E-3,3.4586352E-4,8.910804E-2],"split_indices":[4,50,50,26,4,2,26,47,50,2,16,48,21,14,47,2,26,5,4,5,15,5,8,5,51,51,48,50,5,50,3,14,26,16,50,2,9,2,5,48,9,5,47,51,48,5,3,26,47,16,16,28,3,47,51,51,5,16,0,48,48,48,48,0,0,0,0,0,0,0,0,0,0,0,0,0,0,0,0,0,0,0,0,0,0,0,0,0,0,0,0,0,0,0,0,0,0,0,0,0,0,0,0,0,0,0,0,0,0,0,0,0,0,0,0,0,0,0,0,0,0,0,0,0,0,0,0],"split_type":[0,0,0,0,0,0,0,0,0,0,0,0,0,0,0,0,0,0,0,0,0,0,0,0,0,0,0,0,0,0,0,0,0,0,0,0,0,0,0,0,0,0,0,0,0,0,0,0,0,0,0,0,0,0,0,0,0,0,0,0,0,0,0,0,0,0,0,0,0,0,0,0,0,0,0,0,0,0,0,0,0,0,0,0,0,0,0,0,0,0,0,0,0,0,0,0,0,0,0,0,0,0,0,0,0,0,0,0,0,0,0,0,0,0,0,0,0,0,0,0,0,0,0,0,0,0,0],"sum_hessian":[1.2E5,8.6171E4,3.3829E4,6.7129E4,1.9042E4,4.554E3,2.9275E4,5.6108E4,1.1021E4,4.424E3,1.4618E4,1.559E3,2.995E3,2.913E3,2.6362E4,4.9701E4,6.407E3,2.958E3,8.063E3,2.958E3,1.466E3,1.438E3,1.318E4,5.07E2,1.052E3,1.005E3,1.99E3,1.938E3,9.75E2,1.975E3,2.4387E4,4.5887E4,3.814E3,1.987E3,4.42E3,1.958E3,1E3,1.478E3,6.585E3,1.02E3,1.938E3,9.9E2,4.76E2,9.7E2,4.68E2,1.036E3,1.2144E4,3.36E2,1.71E2,7.11E2,3.41E2,3.39E2,6.66E2,1.322E3,6.68E2,9.66E2,9.72E2,6.56E2,3.19E2,1.008E3,9.67E2,1.298E3,2.3089E4,4.3548E4,2.339E3,1.278E3,2.536E3,1.294E3,6.93E2,9.06E2,3.514E3,6.26E2,1.332E3,6.81E2,3.19E2,4.99E2,9.79E2,4.99E2,6.086E3,6.65E2,3.55E2,1.279E3,6.59E2,6.69E2,3.21E2,3.1E2,1.66E2,6.36E2,3.34E2,3.05E2,1.63E2,6.82E2,3.54E2,6.65E2,1.1479E4,1.1E2,2.26E2,5E1,1.21E2,4.61E2,2.5E2,1.03E2,2.38E2,1.11E2,2.28E2,2.37E2,4.29E2,3.97E2,9.25E2,2.21E2,4.47E2,6.59E2,3.07E2,6.57E2,3.15E2,4.34E2,2.22E2,2E2,1.19E2,6.62E2,3.46E2,6.49E2,3.18E2,8.56E2,4.42E2,8.62E2,2.2227E4],"tree_param":{"num_deleted":"0","num_feature":"52","num_nodes":"127","size_leaf_vector":"1"}},{"base_weights":[-4.386857E-5,-1.0806012E0,4.0721396E-1,-1.1981014E0,-3.2559478E-1,-9.1155016E-1,7.7052915E-1,-1.2900172E0,-3.972889E-1,-4.768317E-1,-2.511154E-1,-1.1163408E0,-2.3570587E-1,-7.8343904E-1,1.0602794E0,-1.3602606E0,-4.631871E-1,-5.380706E-1,-3.229862E-1,-5.425104E-1,-3.383416E-1,-3.1985876E-1,-1.1392996E-1,-1.2027909E0,-3.41808E-1,-3.1795123E-1,-6.935098E-2,-1.0108603E0,-1.9343397E-1,-6.586669E-1,1.2740992E0,-1.4103547E0,-5.4435647E-1,-5.6368226E-1,-3.6172333E-1,-6.423608E-1,-4.2955878E-1,-4.6716413E-1,-2.5397593E-1,-6.781533E-1,-4.806557E-1,-5.050005E-1,-2.568249E-1,-3.8633773E-1,-1.7280649E-1,-1.8924467E-1,4.4822328E-2,-1.2668205E0,-4.1117686E-1,-4.0728256E-1,-2.1440107E-1,-3.8622707E-1,-1.7938034E-1,-1.4689827E-1,8.524703E-2,-1.1580011E0,-3.6464E-1,-2.6588154E-1,-3.498516E-2,-8.884751E-1,-1.2968354E-1,-5.283201E-1,1.421381E0,-7.221025E-2,-2.9448891E-2,-3.351733E-2,-2.4272276E-2,-3.1350665E-2,-2.1430437E-2,-2.4856878E-2,-1.4465381E-2,-3.5763424E-2,-2.3851888E-2,-2.9624525E-2,-1.7605042E-2,-3.006428E-2,-2.0210564E-2,-1.9801864E-2,-9.041644E-3,-4.048565E-2,-3.062954E-2,-3.106553E-2,-2.033798E-2,-3.0476337E-2,-1.4715423E-2,-2.1486348E-2,-9.349781E-3,-2.2829017E-2,-1.22110415E-2,-1.2588709E-2,-4.6622427E-4,-1.3508904E-2,-1.8126732E-3,-9.160684E-3,8.509542E-3,-6.5588444E-2,-2.2180995E-2,-2.4022512E-2,-1.3371612E-2,-2.612487E-2,-1.709406E-2,-1.5420812E-2,-1.6425978E-3,-2.6050508E-2,-1.6193165E-2,-1.32254055E-2,-6.105725E-4,-1.562923E-2,-3.4433957E-3,-2.606033E-4,1.3198867E-2,-6.160707E-2,-1.5599278E-2,-2.2029592E-2,-1.0622601E-2,-1.701038E-2,-6.0973153E-3,-5.357234E-3,6.1064376E-3,-5.2563976E-2,-1.48044145E-2,-1.0058289E-2,4.7779246E-4,-3.861011E-2,-3.5471597E-3,-2.0500198E-2,7.593911E-2],"categories":[],"categories_nodes":[],"categories_segments":[],"categories_sizes":[],"default_left":[0,0,0,0,0,0,0,0,0,0,0,0,0,0,0,0,0,0,0,0,0,0,0,0,0,0,0,0,0,0,0,0,0,0,0,0,0,0,0,0,0,0,0,0,0,0,0,0,0,0,0,0,0,0,0,0,0,0,0,0,0,0,0,0,0,0,0,0,0,0,0,0,0,0,0,0,0,0,0,0,0,0,0,0,0,0,0,0,0,0,0,0,0,0,0,0,0,0,0,0,0,0,0,0,0,0,0,0,0,0,0,0,0,0,0,0,0,0,0,0,0,0,0,0,0,0,0],"id":8,"left_children":[1,3,5,7,9,11,13,15,17,19,21,23,25,27,29,31,33,35,37,39,41,43,45,47,49,51,53,55,57,59,61,63,65,67,69,71,73,75,77,79,81,83,85,87,89,91,93,95,97,99,101,103,105,107,109,111,113,115,117,119,121,123,125,-1,-1,-1,-1,-1,-1,-1,-1,-1,-1,-1,-1,-1,-1,-1,-1,-1,-1,-1,-1,-1,-1,-1,-1,-1,-1,-1,-1,-1,-1,-1,-1,-1,-1,-1,-1,-1,-1,-1,-1,-1,-1,-1,-1,-1,-1,-1,-1,-1,-1,-1,-1,-1,-1,-1,-1,-1,-1,-1,-1,-1,-1,-1,-1],"loss_changes":[5.2808734E4,2.913668E3,4.175854E4,2.0917031E3,4.9723602E1,2.6052402E3,3.0767277E4,1.4802188E3,3.0454437E1,1.308725E1,2.7944092E1,9.669375E2,5.9891037E1,1.4407598E3,2.1168484E4,9.5972656E2,2.0168976E1,1.1153961E1,1.8974945E1,7.9635315E0,6.282646E0,1.9250366E1,1.1869216E1,6.582031E2,1.20251465E1,2.7651611E1,1.7396074E1,7.36584E2,3.4302147E1,7.744951E2,1.3598055E4,6.1472656E2,9.776184E0,8.302704E0,9.632874E0,5.842148E0,6.076317E0,4.9918213E0,1.3436424E1,2.1519623E0,6.8358765E0,3.2121277E0,3.7711315E0,1.346492E1,7.9629974E0,8.323355E0,9.179514E0,4.442871E2,9.570297E0,7.0401E0,8.438711E0,1.6322998E1,1.3786327E1,1.2467463E1,7.8427505E0,3.9559082E2,1.653975E1,2.190039E1,1.0658777E1,4.280896E2,1.9221443E1,4.316283E2,8.447234E3,0E0,0E0,0E0,0E0,0E0,0E0,0E0,0E0,0E0,0E0,0E0,0E0,0E0,0E0,0E0,0E0,0E0,0E0,0E0,0E0,0E0,0E0,0E0,0E0,0E0,0E0,0E0,0E0,0E0,0E0,0E0,0E0,0E0,0E0,0E0,0E0,0E0,0E0,0E0,0E0,0E0,0E0,0E0,0E0,0E0,0E0,0E0,0E0,0E0,0E0,0E0,0E0,0E0,0E0,0E0,0E0,0E0,0E0,0E0,0E0,0E0,0E0,0E0,0E0],"parents":[2147483647,0,0,1,1,2,2,3,3,4,4,5,5,6,6,7,7,8,8,9,9,10,10,11,11,12,12,13,13,14,14,15,15,16,16,17,17,18,18,19,19,20,20,21,21,22,22,23,23,24,24,25,25,26,26,27,27,28,28,29,29,30,30,31,31,32,32,33,33,34,34,35,35,36,36,37,37,38,38,39,39,40,40,41,41,42,42,43,43,44,44,45,45,46,46,47,47,48,48,49,49,50,50,51,51,52,52,53,53,54,54,55,55,56,56,57,57,58,58,59,59,60,60,61,61,62,62],"right_children":[2,4,6,8,10,12,14,16,18,20,22,24,26,28,30,32,34,36,38,40,42,44,46,48,50,52,54,56,58,60,62,64,66,68,70,72,74,76,78,80,82,84,86,88,90,92,94,96,98,100,102,104,106,108,110,112,114,116,118,120,122,124,126,-1,-1,-1,-1,-1,-1,-1,-1,-1,-1,-1,-1,-1,-1,-1,-1,-1,-1,-1,-1,-1,-1,-1,-1,-1,-1,-1,-1,-1,-1,-1,-1,-1,-1,-1,-1,-1,-1,-1,-1,-1,-1,-1,-1,-1,-1,-1,-1,-1,-1,-1,-1,-1,-1,-1,-1,-1,-1,-1,-1,-1,-1,-1,-1],"split_conditions":[5E-1,1E0,5E-1,1E0,5E-1,1E0,5E-1,1E0,5E-1,1E0,1E0,1E0,1E0,1E0,5E-1,1E0,5E-1,5E-1,5E-1,5E-1,5E-1,1E0,1E0,1E0,1E0,1E0,1E0,1E0,1E0,1E0,5E-1,1E0,5E-1,1E0,5E-1,1E0,5E-1,5E-1,5E-1,5E-1,5E-1,1E0,5E-1,1E0,1E0,1E0,5E-1,1E0,1E0,5E-1,1E0,5E-1,1E0,5E-1,1E0,1E0,1E0,1E0,1E0,1E0,1E0,1E0,5E-1,-7.221025E-2,-2.9448891E-2,-3.351733E-2,-2.4272276E-2,-3.1350665E-2,-2.1430437E-2,-2.4856878E-2,-1.4465381E-2,-3.5763424E-2,-2.3851888E-2,-2.9624525E-2,-1.7605042E-2,-3.006428E-2,-2.0210564E-2,-1.9801864E-2,-9.041644E-3,-4.048565E-2,-3.062954E-2,-3.106553E-2,-2.033798E-2,-3.0476337E-2,-1.4715423E-2,-2.1486348E-2,-9.349781E-3,-2.2829017E-2,-1.22110415E-2,-1.2588709E-2,-4.6622427E-4,-1.3508904E-2,-1.8126732E-3,-9.160684E-3,8.509542E-3,-6.5588444E-2,-2.2180995E-2,-2.4022512E-2,-1.3371612E-2,-2.612487E-2,-1.709406E-2,-1.5420812E-2,-1.6425978E-3,-2.6050508E-2,-1.6193165E-2,-1.32254055E-2,-6.105725E-4,-1.562923E-2,-3.4433957E-3,-2.606033E-4,1.3198867E-2,-6.160707E-2,-1.5599278E-2,-2.2029592E-2,-1.0622601E-2,-1.701038E-2,-6.0973153E-3,-5.357234E-3,6.1064376E-3,-5.2563976E-2,-1.48044145E-2,-1.0058289E-2,4.7779246E-4,-3.861011E-2,-3.5471597E-3,-2.0500198E-2,7.593911E-2],"split_indices":[4,50,16,16,2,4,5,26,2,5,21,51,50,4,9,15,50,50,15,8,48,7,0,15,50,21,14,16,50,4,47,14,5,9,2,5,48,0,5,0,16,28,21,9,14,15,9,25,2,24,9,48,48,21,48,51,50,26,26,5,21,4,7,0,0,0,0,0,0,0,0,0,0,0,0,0,0,0,0,0,0,0,0,0,0,0,0,0,0,0,0,0,0,0,0,0,0,0,0,0,0,0,0,0,0,0,0,0,0,0,0,0,0,0,0,0,0,0,0,0,0,0,0,0,0,0,0],"split_type":[0,0,0,0,0,0,0,0,0,0,0,0,0,0,0,0,0,0,0,0,0,0,0,0,0,0,0,0,0,0,0,0,0,0,0,0,0,0,0,0,0,0,0,0,0,0,0,0,0,0,0,0,0,0,0,0,0,0,0,0,0,0,0,0,0,0,0,0,0,0,0,0,0,0,0,0,0,0,0,0,0,0,0,0,0,0,0,0,0,0,0,0,0,0,0,0,0,0,0,0,0,0,0,0,0,0,0,0,0,0,0,0,0,0,0,0,0,0,0,0,0,0,0,0,0,0,0],"sum_hessian":[1.2E5,3.2847E4,8.7153E4,2.8423E4,4.424E3,1.8824E4,6.8329E4,2.5496E4,2.927E3,1.458E3,2.966E3,1.4446E4,4.378E3,1.0738E4,5.7591E4,2.3499E4,1.997E3,1.009E3,1.918E3,9.87E2,4.71E2,1.975E3,9.91E2,1.2995E4,1.451E3,2.929E3,1.449E3,7.75E3,2.988E3,6.371E3,5.122E4,2.2139E4,1.36E3,1.001E3,9.96E2,5.12E2,4.97E2,6.19E2,1.299E3,3.06E2,6.81E2,1.53E2,3.18E2,1.359E3,6.16E2,6.72E2,3.19E2,1.2022E4,9.73E2,9.57E2,4.94E2,1.961E3,9.68E2,9.65E2,4.84E2,6.312E3,1.438E3,2.05E3,9.38E2,4.441E3,1.93E3,3.869E3,4.7351E4,2.1262E4,8.77E2,4.3E2,9.3E2,6.79E2,3.22E2,3.45E2,6.51E2,3.53E2,1.59E2,1.58E2,3.39E2,1.95E2,4.24E2,4.4E2,8.59E2,9.8E1,2.08E2,2.32E2,4.49E2,1.01E2,5.2E1,9E1,2.28E2,9.08E2,4.51E2,4.15E2,2.01E2,4.39E2,2.33E2,1.13E2,2.06E2,1.1399E4,6.23E2,6.55E2,3.18E2,3.44E2,6.13E2,3.25E2,1.69E2,6.18E2,1.343E3,6.41E2,3.27E2,3.08E2,6.57E2,3.22E2,1.62E2,5.803E3,5.09E2,9.58E2,4.8E2,1.351E3,6.99E2,6.43E2,2.95E2,3.483E3,9.58E2,1.275E3,6.55E2,2.523E3,1.346E3,2.391E3,4.496E4],"tree_param":{"num_deleted":"0","num_feature":"52","num_nodes":"127","size_leaf_vector":"1"}},{"base_weights":[-5.1210263E-5,-3.9729038E-1,1.011799E0,-7.105304E-1,7.1821207E-1,-2.4346615E-1,1.199969E0,-9.4850546E-1,5.0053596E-1,-3.0940565E-1,1.0285512E0,-3.0962908E-1,-1.0388664E-1,-1.7884894E-1,1.3560182E0,-1.1104035E0,2.972655E-1,-3.7172377E-1,8.207594E-1,-4.6172237E-1,-2.3571904E-1,-3.572104E-1,1.1845471E0,-3.784549E-1,-1.7499802E-1,-1.7758264E-1,4.450612E-2,-2.5316563E-1,-2.5316402E-2,-1.17756E-1,1.4772031E0,-1.212959E0,1.3394986E-1,-4.5395097E-1,6.1732817E-1,-5.111148E-1,-3.044164E-1,-3.0969346E-1,1.0660609E0,-5.267854E-1,-3.2321945E-1,-3.0338776E-1,-9.770794E-2,-4.245328E-1,-2.2307006E-1,-2.9803437E-1,1.3062139E0,-4.4069234E-1,-2.531224E-1,-2.4897285E-1,-3.394582E-2,-2.5014433E-1,-3.417184E-2,-3.5973944E-2,2.0019105E-1,-3.307869E-1,-1.12381205E-1,-1.04368985E-1,1.1348663E-1,-2.0605585E-1,6.886744E-2,-7.548991E-2,1.5652887E0,-6.377905E-2,-2.8070922E-3,-2.5187287E-2,2.2455009E-2,-2.9381046E-2,-1.9443532E-2,-1.8076291E-2,4.501611E-2,-3.2398544E-2,-2.2189768E-2,-1.889075E-2,-7.950942E-3,-2.3890596E-2,-1.1173077E-2,-2.02467E-2,5.933265E-2,-2.96043E-2,-1.9768348E-2,-2.4473382E-2,-1.2244499E-2,-1.8576978E-2,-8.263694E-3,-8.789449E-3,2.7600522E-3,-2.7122263E-2,-1.8093955E-2,-1.5645783E-2,-4.266498E-3,-1.9403994E-2,-6.6135447E-3,-9.448074E-3,6.9718376E-2,-2.5205715E-2,-1.5405187E-2,-1.6159749E-2,-5.5430736E-3,-1.6056748E-2,-5.4626833E-3,-6.0630147E-3,5.3004394E-3,-1.56733E-2,-5.62177E-3,-6.124028E-3,8.066607E-3,-6.497645E-3,6.0884175E-3,-5.6359294E-4,1.580987E-2,-2.007399E-2,-9.146085E-3,-9.792382E-3,1.9507317E-3,-8.90081E-3,2.2788574E-3,1.8425832E-3,1.297724E-2,-1.4009756E-2,-2.5901438E-3,-1.1801551E-3,1.1982746E-2,-7.3628128E-3,3.7058145E-3,-5.2687672E-5,8.142702E-2],"categories":[],"categories_nodes":[],"categories_segments":[],"categories_sizes":[],"default_left":[0,0,0,0,0,0,0,0,0,0,0,0,0,0,0,0,0,0,0,0,0,0,0,0,0,0,0,0,0,0,0,0,0,0,0,0,0,0,0,0,0,0,0,0,0,0,0,0,0,0,0,0,0,0,0,0,0,0,0,0,0,0,0,0,0,0,0,0,0,0,0,0,0,0,0,0,0,0,0,0,0,0,0,0,0,0,0,0,0,0,0,0,0,0,0,0,0,0,0,0,0,0,0,0,0,0,0,0,0,0,0,0,0,0,0,0,0,0,0,0,0,0,0,0,0,0,0],"id":9,"left_children":[1,3,5,7,9,11,13,15,17,19,21,23,25,27,29,31,33,35,37,39,41,43,45,47,49,51,53,55,57,59,61,63,65,67,69,71,73,75,77,79,81,83,85,87,89,91,93,95,97,99,101,103,105,107,109,111,113,115,117,119,121,123,125,-1,-1,-1,-1,-1,-1,-1,-1,-1,-1,-1,-1,-1,-1,-1,-1,-1,-1,-1,-1,-1,-1,-1,-1,-1,-1,-1,-1,-1,-1,-1,-1,-1,-1,-1,-1,-1,-1,-1,-1,-1,-1,-1,-1,-1,-1,-1,-1,-1,-1,-1,-1,-1,-1,-1,-1,-1,-1,-1,-1,-1,-1,-1,-1],"loss_changes":[4.823439E4,3.0110736E4,7.991047E3,1.9390809E4,6.0254834E3,4.070337E1,6.3303477E3,1.1341441E4,3.086769E3,4.9084656E1,3.1373135E3,2.7657898E1,1.5536954E1,3.4132393E1,4.720375E3,6.3508047E3,1.5554224E3,2.7690308E1,2.2417603E3,1.2698029E1,2.7576553E1,1.317131E1,2.3530957E3,1.5325409E1,1.0571943E1,9.866867E0,5.921141E0,2.1993423E1,1.073221E1,3.3120144E1,3.3401719E3,3.3304531E3,7.6190234E2,1.6587189E1,1.256842E3,8.603012E0,2.1326538E1,2.0798157E1,1.1787085E3,8.090149E0,5.857296E0,1.8604004E1,1.1638572E1,7.0214386E0,6.074339E0,1.4725662E1,1.589041E3,1.0953003E1,6.53347E0,6.669731E0,4.2898765E0,5.458336E0,5.5444655E0,4.641054E0,3.9530606E0,1.3505035E1,9.080626E0,6.8879743E0,3.9640074E0,1.5584457E1,1.0207813E1,1.4097451E1,2.2895977E3,0E0,0E0,0E0,0E0,0E0,0E0,0E0,0E0,0E0,0E0,0E0,0E0,0E0,0E0,0E0,0E0,0E0,0E0,0E0,0E0,0E0,0E0,0E0,0E0,0E0,0E0,0E0,0E0,0E0,0E0,0E0,0E0,0E0,0E0,0E0,0E0,0E0,0E0,0E0,0E0,0E0,0E0,0E0,0E0,0E0,0E0,0E0,0E0,0E0,0E0,0E0,0E0,0E0,0E0,0E0,0E0,0E0,0E0,0E0,0E0,0E0,0E0,0E0,0E0],"parents":[2147483647,0,0,1,1,2,2,3,3,4,4,5,5,6,6,7,7,8,8,9,9,10,10,11,11,12,12,13,13,14,14,15,15,16,16,17,17,18,18,19,19,20,20,21,21,22,22,23,23,24,24,25,25,26,26,27,27,28,28,29,29,30,30,31,31,32,32,33,33,34,34,35,35,36,36,37,37,38,38,39,39,40,40,41,41,42,42,43,43,44,44,45,45,46,46,47,47,48,48,49,49,50,50,51,51,52,52,53,53,54,54,55,55,56,56,57,57,58,58,59,59,60,60,61,61,62,62],"right_children":[2,4,6,8,10,12,14,16,18,20,22,24,26,28,30,32,34,36,38,40,42,44,46,48,50,52,54,56,58,60,62,64,66,68,70,72,74,76,78,80,82,84,86,88,90,92,94,96,98,100,102,104,106,108,110,112,114,116,118,120,122,124,126,-1,-1,-1,-1,-1,-1,-1,-1,-1,-1,-1,-1,-1,-1,-1,-1,-1,-1,-1,-1,-1,-1,-1,-1,-1,-1,-1,-1,-1,-1,-1,-1,-1,-1,-1,-1,-1,-1,-1,-1,-1,-1,-1,-1,-1,-1,-1,-1,-1,-1,-1,-1,-1,-1,-1,-1,-1,-1,-1,-1,-1,-1,-1,-1],"split_conditions":[1E0,1E0,5E-1,1E0,5E-1,1E0,5E-1,1E0,5E-1,5E-1,5E-1,1E0,1E0,1E0,5E-1,1E0,5E-1,5E-1,5E-1,1E0,1E0,1E0,5E-1,1E0,1E0,1E0,1E0,1E0,1E0,1E0,5E-1,1E0,5E-1,5E-1,5E-1,5E-1,1E0,5E-1,5E-1,1E0,5E-1,1E0,1E0,5E-1,1E0,1E0,5E-1,1E0,1E0,1E0,1E0,1E0,1E0,1E0,5E-1,1E0,1E0,1E0,1E0,1E0,1E0,1E0,5E-1,-6.377905E-2,-2.8070922E-3,-2.5187287E-2,2.2455009E-2,-2.9381046E-2,-1.9443532E-2,-1.8076291E-2,4.501611E-2,-3.2398544E-2,-2.2189768E-2,-1.889075E-2,-7.950942E-3,-2.3890596E-2,-1.1173077E-2,-2.02467E-2,5.933265E-2,-2.96043E-2,-1.9768348E-2,-2.4473382E-2,-1.2244499E-2,-1.8576978E-2,-8.263694E-3,-8.789449E-3,2.7600522E-3,-2.7122263E-2,-1.8093955E-2,-1.5645783E-2,-4.266498E-3,-1.9403994E-2,-6.6135447E-3,-9.448074E-3,6.9718376E-2,-2.5205715E-2,-1.5405187E-2,-1.6159749E-2,-5.5430736E-3,-1.6056748E-2,-5.4626833E-3,-6.0630147E-3,5.3004394E-3,-1.56733E-2,-5.62177E-3,-6.124028E-3,8.066607E-3,-6.497645E-3,6.0884175E-3,-5.6359294E-4,1.580987E-2,-2.007399E-2,-9.146085E-3,-9.792382E-3,1.9507317E-3,-8.90081E-3,2.2788574E-3,1.8425832E-3,1.297724E-2,-1.4009756E-2,-2.5901438E-3,-1.1801551E-3,1.1982746E-2,-7.3628128E-3,3.7058145E-3,-5.2687672E-5,8.142702E-2],"split_indices":[4,9,28,5,4,50,0,16,9,50,24,26,15,50,48,47,5,50,4,48,5,14,26,48,21,14,5,9,51,50,26,1,4,50,4,0,2,50,48,5,14,51,16,51,48,50,8,15,14,14,15,47,5,25,14,51,47,16,15,16,51,50,25,0,0,0,0,0,0,0,0,0,0,0,0,0,0,0,0,0,0,0,0,0,0,0,0,0,0,0,0,0,0,0,0,0,0,0,0,0,0,0,0,0,0,0,0,0,0,0,0,0,0,0,0,0,0,0,0,0,0,0,0,0,0,0,0],"split_type":[0,0,0,0,0,0,0,0,0,0,0,0,0,0,0,0,0,0,0,0,0,0,0,0,0,0,0,0,0,0,0,0,0,0,0,0,0,0,0,0,0,0,0,0,0,0,0,0,0,0,0,0,0,0,0,0,0,0,0,0,0,0,0,0,0,0,0,0,0,0,0,0,0,0,0,0,0,0,0,0,0,0,0,0,0,0,0,0,0,0,0,0,0,0,0,0,0,0,0,0,0,0,0,0,0,0,0,0,0,0,0,0,0,0,0,0,0,0,0,0,0,0,0,0,0,0,0],"sum_hessian":[1.2E5,8.6171E4,3.3829E4,6.7279E4,1.8892E4,4.41E3,2.9419E4,5.623E4,1.1049E4,4.382E3,1.451E4,2.991E3,1.419E3,2.991E3,2.6428E4,4.9763E4,6.467E3,2.967E3,8.082E3,1.427E3,2.955E3,1.468E3,1.3042E4,1.978E3,1.013E3,9.48E2,4.71E2,2.015E3,9.76E2,2.008E3,2.442E4,4.5974E4,3.789E3,1.932E3,4.535E3,9.64E2,2.003E3,1.441E3,6.641E3,9.69E2,4.58E2,1.982E3,9.73E2,9.76E2,4.92E2,9.89E2,1.2053E4,1.32E3,6.58E2,6.64E2,3.49E2,6.29E2,3.19E2,3.11E2,1.6E2,1.298E3,7.17E2,6.22E2,3.54E2,1.363E3,6.45E2,1.311E3,2.3109E4,4.3613E4,2.361E3,1.253E3,2.536E3,6.3E2,1.302E3,1.017E3,3.518E3,3.15E2,6.49E2,1.33E3,6.73E2,4.87E2,9.54E2,5.03E2,6.138E3,6.45E2,3.24E2,1.45E2,3.13E2,1.326E3,6.56E2,6.44E2,3.29E2,3.36E2,6.4E2,2.97E2,1.95E2,6.4E2,3.49E2,6.71E2,1.1382E4,8.91E2,4.29E2,4.4E2,2.18E2,4.37E2,2.27E2,2.15E2,1.34E2,4.3E2,1.99E2,2.2E2,9.9E1,1.95E2,1.16E2,5.7E1,1.03E2,8.77E2,4.21E2,4.62E2,2.55E2,4.17E2,2.05E2,2.33E2,1.21E2,9.2E2,4.43E2,4.19E2,2.26E2,8.86E2,4.25E2,8.97E2,2.2212E4],"tree_param":{"num_deleted":"0","num_feature":"52","num_nodes":"127","size_leaf_vector":"1"}},{"base_weights":[-5.1688294E-5,-3.7742952E-1,9.612076E-1,-6.782344E-1,6.88508E-1,-2.1883038E-1,1.1452874E0,-9.0370005E-1,4.734149E-1,-2.8639823E-1,9.8363113E-1,-3.000649E-1,-5.487538E-2,-1.8996547E-1,1.2940222E0,-1.0584507E0,2.8642616E-1,-3.993253E-1,7.980357E-1,-4.3946353E-1,-2.1114048E-1,-3.6112198E-1,1.1341141E0,-3.6513567E-1,-1.6749297E-1,-1.2993464E-1,9.358137E-2,-2.5775072E-1,-4.9227495E-2,-1.1743961E-1,1.4087268E0,-1.1571819E0,1.1793522E-1,-4.580473E-1,6.043203E-1,-5.230407E-1,-3.3773252E-1,-2.7794442E-1,1.0325193E0,-5.6707627E-1,-3.7857652E-1,-3.3925265E-1,-1.447083E-1,-4.2898816E-1,-2.2381203E-1,-2.601754E-1,1.2494234E0,-4.2946914E-1,-2.3631114E-1,-2.5167805E-1,5.976618E-3,-2.750704E-1,-5.7389375E-2,1.3253563E-3,2.7754292E-1,-3.253457E-1,-1.1925756E-1,-1.1450922E-1,1.0236077E-1,-1.8748237E-1,3.1904917E-2,-9.158374E-2,1.4923741E0,-6.0869753E-2,-2.3069936E-3,-2.4023145E-2,2.1793826E-2,-2.9568851E-2,-1.9318545E-2,-1.8396908E-2,4.342098E-2,-2.9218828E-2,-1.957938E-2,-1.9912632E-2,-1.0979311E-2,-2.1959588E-2,-9.988981E-3,-1.7660078E-2,5.745689E-2,-3.148485E-2,-2.058209E-2,-2.2295218E-2,-1.2408953E-2,-2.0349653E-2,-1.0499069E-2,-1.4396024E-2,-3.7315798E-3,-2.4405885E-2,-1.5887653E-2,-1.5044759E-2,-3.9803176E-3,-1.7780786E-2,-4.4625415E-3,-1.0985114E-2,6.6793844E-2,-2.8134922E-2,-1.8152038E-2,-1.5969316E-2,-4.1139633E-3,-1.6116386E-2,-5.494619E-3,-1.1107319E-2,5.4502985E-3,-2.3735374E-2,-8.964952E-3,-6.5167993E-3,4.168083E-3,-7.926742E-3,3.7209075E-3,6.7635598E-3,2.471201E-2,-1.949343E-2,-9.351625E-3,-1.2813642E-2,-1.8512377E-3,-9.412637E-3,1.0196257E-3,6.298378E-5,1.4196894E-2,-1.3087186E-2,-2.6757724E-3,-5.26775E-3,5.113024E-3,-8.6968485E-3,3.3397195E-3,-1.9300953E-3,7.757252E-2],"categories":[],"categories_nodes":[],"categories_segments":[],"categories_sizes":[],"default_left":[0,0,0,0,0,0,0,0,0,0,0,0,0,0,0,0,0,0,0,0,0,0,0,0,0,0,0,0,0,0,0,0,0,0,0,0,0,0,0,0,0,0,0,0,0,0,0,0,0,0,0,0,0,0,0,0,0,0,0,0,0,0,0,0,0,0,0,0,0,0,0,0,0,0,0,0,0,0,0,0,0,0,0,0,0,0,0,0,0,0,0,0,0,0,0,0,0,0,0,0,0,0,0,0,0,0,0,0,0,0,0,0,0,0,0,0,0,0,0,0,0,0,0,0,0,0,0],"id":10,"left_children":[1,3,5,7,9,11,13,15,17,19,21,23,25,27,29,31,33,35,37,39,41,43,45,47,49,51,53,55,57,59,61,63,65,67,69,71,73,75,77,79,81,83,85,87,89,91,93,95,97,99,101,103,105,107,109,111,113,115,117,119,121,123,125,-1,-1,-1,-1,-1,-1,-1,-1,-1,-1,-1,-1,-1,-1,-1,-1,-1,-1,-1,-1,-1,-1,-1,-1,-1,-1,-1,-1,-1,-1,-1,-1,-1,-1,-1,-1,-1,-1,-1,-1,-1,-1,-1,-1,-1,-1,-1,-1,-1,-1,-1,-1,-1,-1,-1,-1,-1,-1,-1,-1,-1,-1,-1,-1],"loss_changes":[4.353168E4,2.7630586E4,7.348842E3,1.7451215E4,5.45713E3,6.079718E1,5.8122344E3,1.0351551E4,3.1178574E3,5.068451E1,2.9466055E3,2.6275757E1,1.6882744E1,2.7977554E1,4.2633477E3,5.7768906E3,1.5310181E3,2.256137E1,2.0239834E3,1.1067322E1,2.5117249E1,1.3565201E1,2.1055059E3,1.6863464E1,1.4707281E1,1.0576302E1,8.638156E0,1.8496857E1,9.462346E0,2.0717777E1,3.0563594E3,3.0696953E3,7.3307355E2,1.8273102E1,1.1642705E3,7.753357E0,1.4177246E1,1.8011414E1,1.064707E3,4.2863007E0,8.545807E0,8.7502365E0,1.953836E1,6.290634E0,5.389454E0,1.6297676E1,1.5363652E3,1.1867401E1,8.726345E0,6.75618E0,7.780325E0,6.3199234E0,6.9104977E0,3.9845717E0,5.174224E0,1.1796494E1,7.325427E0,6.649189E0,5.2866435E0,1.3396652E1,6.123653E0,1.6797894E1,2.086336E3,0E0,0E0,0E0,0E0,0E0,0E0,0E0,0E0,0E0,0E0,0E0,0E0,0E0,0E0,0E0,0E0,0E0,0E0,0E0,0E0,0E0,0E0,0E0,0E0,0E0,0E0,0E0,0E0,0E0,0E0,0E0,0E0,0E0,0E0,0E0,0E0,0E0,0E0,0E0,0E0,0E0,0E0,0E0,0E0,0E0,0E0,0E0,0E0,0E0,0E0,0E0,0E0,0E0,0E0,0E0,0E0,0E0,0E0,0E0,0E0,0E0,0E0,0E0,0E0],"parents":[2147483647,0,0,1,1,2,2,3,3,4,4,5,5,6,6,7,7,8,8,9,9,10,10,11,11,12,12,13,13,14,14,15,15,16,16,17,17,18,18,19,19,20,20,21,21,22,22,23,23,24,24,25,25,26,26,27,27,28,28,29,29,30,30,31,31,32,32,33,33,34,34,35,35,36,36,37,37,38,38,39,39,40,40,41,41,42,42,43,43,44,44,45,45,46,46,47,47,48,48,49,49,50,50,51,51,52,52,53,53,54,54,55,55,56,56,57,57,58,58,59,59,60,60,61,61,62,62],"right_children":[2,4,6,8,10,12,14,16,18,20,22,24,26,28,30,32,34,36,38,40,42,44,46,48,50,52,54,56,58,60,62,64,66,68,70,72,74,76,78,80,82,84,86,88,90,92,94,96,98,100,102,104,106,108,110,112,114,116,118,120,122,124,126,-1,-1,-1,-1,-1,-1,-1,-1,-1,-1,-1,-1,-1,-1,-1,-1,-1,-1,-1,-1,-1,-1,-1,-1,-1,-1,-1,-1,-1,-1,-1,-1,-1,-1,-1,-1,-1,-1,-1,-1,-1,-1,-1,-1,-1,-1,-1,-1,-1,-1,-1,-1,-1,-1,-1,-1,-1,-1,-1,-1,-1,-1,-1,-1],"split_conditions":[1E0,1E0,5E-1,1E0,5E-1,1E0,5E-1,1E0,5E-1,5E-1,5E-1,1E0,1E0,1E0,5E-1,1E0,5E-1,5E-1,5E-1,5E-1,5E-1,1E0,5E-1,1E0,1E0,5E-1,1E0,1E0,1E0,1E0,5E-1,1E0,5E-1,5E-1,5E-1,1E0,1E0,5E-1,5E-1,1E0,1E0,1E0,5E-1,1E0,1E0,1E0,5E-1,5E-1,1E0,1E0,5E-1,5E-1,1E0,5E-1,1E0,1E0,5E-1,1E0,1E0,1E0,5E-1,1E0,5E-1,-6.0869753E-2,-2.3069936E-3,-2.4023145E-2,2.1793826E-2,-2.9568851E-2,-1.9318545E-2,-1.8396908E-2,4.342098E-2,-2.9218828E-2,-1.957938E-2,-1.9912632E-2,-1.0979311E-2,-2.1959588E-2,-9.988981E-3,-1.7660078E-2,5.745689E-2,-3.148485E-2,-2.058209E-2,-2.2295218E-2,-1.2408953E-2,-2.0349653E-2,-1.0499069E-2,-1.4396024E-2,-3.7315798E-3,-2.4405885E-2,-1.5887653E-2,-1.5044759E-2,-3.9803176E-3,-1.7780786E-2,-4.4625415E-3,-1.0985114E-2,6.6793844E-2,-2.8134922E-2,-1.8152038E-2,-1.5969316E-2,-4.1139633E-3,-1.6116386E-2,-5.494619E-3,-1.1107319E-2,5.4502985E-3,-2.3735374E-2,-8.964952E-3,-6.5167993E-3,4.168083E-3,-7.926742E-3,3.7209075E-3,6.7635598E-3,2.471201E-2,-1.949343E-2,-9.351625E-3,-1.2813642E-2,-1.8512377E-3,-9.412637E-3,1.0196257E-3,6.298378E-5,1.4196894E-2,-1.3087186E-2,-2.6757724E-3,-5.26775E-3,5.113024E-3,-8.6968485E-3,3.3397195E-3,-1.9300953E-3,7.757252E-2],"split_indices":[4,2,2,16,4,50,15,15,2,50,51,14,14,16,25,21,2,50,4,51,16,50,15,16,51,28,21,21,50,50,24,26,2,50,16,5,9,48,22,9,26,21,48,15,5,50,21,21,9,9,16,25,21,5,28,51,24,9,28,26,47,50,49,0,0,0,0,0,0,0,0,0,0,0,0,0,0,0,0,0,0,0,0,0,0,0,0,0,0,0,0,0,0,0,0,0,0,0,0,0,0,0,0,0,0,0,0,0,0,0,0,0,0,0,0,0,0,0,0,0,0,0,0,0,0,0,0],"split_type":[0,0,0,0,0,0,0,0,0,0,0,0,0,0,0,0,0,0,0,0,0,0,0,0,0,0,0,0,0,0,0,0,0,0,0,0,0,0,0,0,0,0,0,0,0,0,0,0,0,0,0,0,0,0,0,0,0,0,0,0,0,0,0,0,0,0,0,0,0,0,0,0,0,0,0,0,0,0,0,0,0,0,0,0,0,0,0,0,0,0,0,0,0,0,0,0,0,0,0,0,0,0,0,0,0,0,0,0,0,0,0,0,0,0,0,0,0,0,0,0,0,0,0,0,0,0,0],"sum_hessian":[1.2E5,8.6171E4,3.3829E4,6.7206E4,1.8965E4,4.565E3,2.9264E4,5.6203E4,1.1003E4,4.407E3,1.4558E4,3.052E3,1.513E3,2.933E3,2.6331E4,4.9736E4,6.467E3,2.983E3,8.02E3,1.451E3,2.956E3,1.465E3,1.3093E4,2.046E3,1.006E3,1.005E3,5.08E2,1.979E3,9.54E2,1.979E3,2.4352E4,4.5885E4,3.851E3,1.935E3,4.532E3,9.89E2,1.994E3,1.435E3,6.585E3,4.66E2,9.85E2,1.008E3,1.948E3,9.79E2,4.86E2,1E3,1.2093E4,1.363E3,6.83E2,6.77E2,3.29E2,3.34E2,6.71E2,3.39E2,1.69E2,1.329E3,6.5E2,6.67E2,2.87E2,1.347E3,6.32E2,1.286E3,2.3066E4,4.3526E4,2.359E3,1.336E3,2.515E3,6.74E2,1.261E3,9.68E2,3.564E3,6.72E2,3.17E2,1.317E3,6.77E2,4.67E2,9.68E2,5.11E2,6.074E3,3.3E2,1.36E2,6.48E2,3.37E2,6.6E2,3.48E2,6.39E2,1.309E3,6.37E2,3.42E2,3.16E2,1.7E2,6.41E2,3.59E2,6.72E2,1.1421E4,4.51E2,9.12E2,4.43E2,2.4E2,4.51E2,2.26E2,1.02E2,2.27E2,1.07E2,2.27E2,4.42E2,2.29E2,1.06E2,2.33E2,1.03E2,6.6E1,9.05E2,4.24E2,2.43E2,4.07E2,4.31E2,2.36E2,1.85E2,1.02E2,8.66E2,4.81E2,2.14E2,4.18E2,8.46E2,4.4E2,8.57E2,2.2209E4],"tree_param":{"num_deleted":"0","num_feature":"52","num_nodes":"127","size_leaf_vector":"1"}},{"base_weights":[-5.2503474E-5,-9.358157E-1,3.5263297E-1,-1.0389687E0,-2.7300063E-1,-8.082232E-1,6.667034E-1,-1.1208618E0,-3.432827E-1,-3.4161088E-1,-1.3442479E-1,-9.8408365E-1,-2.4158232E-1,-6.9134456E-1,9.255776E-1,-1.1814322E0,-3.9173496E-1,-4.727964E-1,-2.8015438E-1,-4.673737E-1,-2.75213E-1,-2.7961266E-1,-6.1098076E-2,-1.0580078E0,-3.431063E-1,-3.1152984E-1,-9.1464974E-2,-8.820707E-1,-1.7552073E-1,-5.792765E-1,1.117753E0,-1.2240856E0,-4.4741622E-1,-5.129695E-1,-3.2681343E-1,-6.1118287E-1,-4.0319827E-1,-4.1506582E-1,-2.1269098E-1,-5.346348E-1,-3.4022963E-1,-4.0825224E-1,-2.1413404E-1,-3.5235128E-1,-1.4223649E-1,-1.3317804E-1,8.7082036E-2,-1.114631E0,-4.0515622E-1,-4.0757978E-1,-2.126605E-1,-3.7544945E-1,-1.8433465E-1,-1.6598663E-1,5.618738E-2,-1.0077332E0,-3.23957E-1,-2.4680518E-1,-3.7016787E-2,-7.8473604E-1,-1.2459409E-1,-4.7690222E-1,1.2461207E0,-6.265194E-2,-2.5444036E-2,-2.8754545E-2,-1.9483073E-2,-3.2746922E-2,-2.2243476E-2,-2.3644598E-2,-1.2682381E-2,-3.6701918E-2,-2.6705611E-2,-2.3900175E-2,-1.265576E-2,-2.8635858E-2,-1.6631711E-2,-1.6684476E-2,-7.5263544E-3,-3.2579523E-2,-2.3832973E-2,-2.0789988E-2,-9.59377E-3,-2.4351612E-2,-1.3533744E-2,-1.4044563E-2,-4.1407E-3,-2.5980918E-2,-1.3194988E-2,-1.5288134E-2,-2.4808066E-3,-1.0629245E-2,8.582305E-4,-1.1884331E-3,1.2897278E-2,-5.7703804E-2,-2.3120781E-2,-2.604333E-2,-1.7279074E-2,-2.325445E-2,-1.4897964E-2,-1.4294897E-2,-3.7824616E-3,-2.1729806E-2,-1.30087305E-2,-1.2303679E-2,-3.0061125E-3,-1.1945477E-2,-1.3775876E-3,-6.8091473E-4,9.4494205E-3,-5.313269E-2,-1.6722327E-2,-2.0073704E-2,-8.868708E-3,-1.5880711E-2,-5.041263E-3,-6.0896813E-3,5.709441E-3,-4.6559896E-2,-1.3337589E-2,-9.934737E-3,1.070461E-3,-3.3305936E-2,-4.4884603E-3,-1.8592967E-2,6.65298E-2],"categories":[],"categories_nodes":[],"categories_segments":[],"categories_sizes":[],"default_left":[0,0,0,0,0,0,0,0,0,0,0,0,0,0,0,0,0,0,0,0,0,0,0,0,0,0,0,0,0,0,0,0,0,0,0,0,0,0,0,0,0,0,0,0,0,0,0,0,0,0,0,0,0,0,0,0,0,0,0,0,0,0,0,0,0,0,0,0,0,0,0,0,0,0,0,0,0,0,0,0,0,0,0,0,0,0,0,0,0,0,0,0,0,0,0,0,0,0,0,0,0,0,0,0,0,0,0,0,0,0,0,0,0,0,0,0,0,0,0,0,0,0,0,0,0,0,0],"id":11,"left_children":[1,3,5,7,9,11,13,15,17,19,21,23,25,27,29,31,33,35,37,39,41,43,45,47,49,51,53,55,57,59,61,63,65,67,69,71,73,75,77,79,81,83,85,87,89,91,93,95,97,99,101,103,105,107,109,111,113,115,117,119,121,123,125,-1,-1,-1,-1,-1,-1,-1,-1,-1,-1,-1,-1,-1,-1,-1,-1,-1,-1,-1,-1,-1,-1,-1,-1,-1,-1,-1,-1,-1,-1,-1,-1,-1,-1,-1,-1,-1,-1,-1,-1,-1,-1,-1,-1,-1,-1,-1,-1,-1,-1,-1,-1,-1,-1,-1,-1,-1,-1,-1,-1,-1,-1,-1,-1],"loss_changes":[3.960427E4,2.24558E3,3.177607E4,1.6189824E3,4.2025757E1,1.8491611E3,2.4116492E4,1.1226172E3,2.4354584E1,2.458017E1,1.5600817E1,6.707324E2,4.614148E1,1.0803643E3,1.6662387E4,7.3453516E2,1.5196045E1,9.192398E0,1.8260529E1,8.549561E0,1.5668701E1,4.8662224E0,1.0436075E1,4.6895117E2,1.2242813E1,2.4313477E1,1.5402939E1,5.620078E2,2.9274704E1,6.0946045E2,1.0458832E4,4.5883984E2,9.295502E0,6.2732697E0,1.34964905E1,2.6946793E0,7.2326965E0,8.529442E0,1.0074036E1,4.205246E0,3.9113922E0,6.468727E0,1.1645031E1,4.612076E0,2.5899162E0,7.8470707E0,6.0670395E0,3.0005566E2,6.816818E0,6.0395203E0,4.865103E0,1.3489105E1,7.6922874E0,9.381838E0,4.359598E0,2.4162402E2,1.6688736E1,2.020723E1,1.2948009E1,3.4068823E2,2.1988342E1,2.788103E2,6.463242E3,0E0,0E0,0E0,0E0,0E0,0E0,0E0,0E0,0E0,0E0,0E0,0E0,0E0,0E0,0E0,0E0,0E0,0E0,0E0,0E0,0E0,0E0,0E0,0E0,0E0,0E0,0E0,0E0,0E0,0E0,0E0,0E0,0E0,0E0,0E0,0E0,0E0,0E0,0E0,0E0,0E0,0E0,0E0,0E0,0E0,0E0,0E0,0E0,0E0,0E0,0E0,0E0,0E0,0E0,0E0,0E0,0E0,0E0,0E0,0E0,0E0,0E0,0E0,0E0],"parents":[2147483647,0,0,1,1,2,2,3,3,4,4,5,5,6,6,7,7,8,8,9,9,10,10,11,11,12,12,13,13,14,14,15,15,16,16,17,17,18,18,19,19,20,20,21,21,22,22,23,23,24,24,25,25,26,26,27,27,28,28,29,29,30,30,31,31,32,32,33,33,34,34,35,35,36,36,37,37,38,38,39,39,40,40,41,41,42,42,43,43,44,44,45,45,46,46,47,47,48,48,49,49,50,50,51,51,52,52,53,53,54,54,55,55,56,56,57,57,58,58,59,59,60,60,61,61,62,62],"right_children":[2,4,6,8,10,12,14,16,18,20,22,24,26,28,30,32,34,36,38,40,42,44,46,48,50,52,54,56,58,60,62,64,66,68,70,72,74,76,78,80,82,84,86,88,90,92,94,96,98,100,102,104,106,108,110,112,114,116,118,120,122,124,126,-1,-1,-1,-1,-1,-1,-1,-1,-1,-1,-1,-1,-1,-1,-1,-1,-1,-1,-1,-1,-1,-1,-1,-1,-1,-1,-1,-1,-1,-1,-1,-1,-1,-1,-1,-1,-1,-1,-1,-1,-1,-1,-1,-1,-1,-1,-1,-1,-1,-1,-1,-1,-1,-1,-1,-1,-1,-1,-1,-1,-1,-1,-1,-1],"split_conditions":[5E-1,1E0,5E-1,1E0,1E0,1E0,5E-1,1E0,5E-1,5E-1,5E-1,1E0,1E0,1E0,5E-1,1E0,5E-1,5E-1,5E-1,1E0,5E-1,1E0,1E0,1E0,1E0,1E0,1E0,1E0,1E0,1E0,5E-1,1E0,5E-1,5E-1,5E-1,5E-1,1E0,5E-1,5E-1,5E-1,1E0,1E0,1E0,5E-1,5E-1,1E0,1E0,1E0,5E-1,1E0,1E0,1E0,1E0,1E0,1E0,1E0,1E0,1E0,1E0,1E0,1E0,1E0,5E-1,-6.265194E-2,-2.5444036E-2,-2.8754545E-2,-1.9483073E-2,-3.2746922E-2,-2.2243476E-2,-2.3644598E-2,-1.2682381E-2,-3.6701918E-2,-2.6705611E-2,-2.3900175E-2,-1.265576E-2,-2.8635858E-2,-1.6631711E-2,-1.6684476E-2,-7.5263544E-3,-3.2579523E-2,-2.3832973E-2,-2.0789988E-2,-9.59377E-3,-2.4351612E-2,-1.3533744E-2,-1.4044563E-2,-4.1407E-3,-2.5980918E-2,-1.3194988E-2,-1.5288134E-2,-2.4808066E-3,-1.0629245E-2,8.582305E-4,-1.1884331E-3,1.2897278E-2,-5.7703804E-2,-2.3120781E-2,-2.604333E-2,-1.7279074E-2,-2.325445E-2,-1.4897964E-2,-1.4294897E-2,-3.7824616E-3,-2.1729806E-2,-1.30087305E-2,-1.2303679E-2,-3.0061125E-3,-1.1945477E-2,-1.3775876E-3,-6.8091473E-4,9.4494205E-3,-5.313269E-2,-1.6722327E-2,-2.0073704E-2,-8.868708E-3,-1.5880711E-2,-5.041263E-3,-6.0896813E-3,5.709441E-3,-4.6559896E-2,-1.3337589E-2,-9.934737E-3,1.070461E-3,-3.3305936E-2,-4.4884603E-3,-1.8592967E-2,6.65298E-2],"split_indices":[4,50,51,48,2,4,3,7,51,5,15,2,50,4,15,5,2,21,16,48,51,3,26,7,50,5,2,51,48,4,14,9,14,5,9,2,9,15,9,14,51,14,16,26,24,5,21,48,28,16,5,15,16,15,3,8,50,50,26,51,21,4,1,0,0,0,0,0,0,0,0,0,0,0,0,0,0,0,0,0,0,0,0,0,0,0,0,0,0,0,0,0,0,0,0,0,0,0,0,0,0,0,0,0,0,0,0,0,0,0,0,0,0,0,0,0,0,0,0,0,0,0,0,0,0,0,0],"split_type":[0,0,0,0,0,0,0,0,0,0,0,0,0,0,0,0,0,0,0,0,0,0,0,0,0,0,0,0,0,0,0,0,0,0,0,0,0,0,0,0,0,0,0,0,0,0,0,0,0,0,0,0,0,0,0,0,0,0,0,0,0,0,0,0,0,0,0,0,0,0,0,0,0,0,0,0,0,0,0,0,0,0,0,0,0,0,0,0,0,0,0,0,0,0,0,0,0,0,0,0,0,0,0,0,0,0,0,0,0,0,0,0,0,0,0,0,0,0,0,0,0,0,0,0,0,0,0],"sum_hessian":[1.2E5,3.2847E4,8.7153E4,2.8423E4,4.424E3,1.8558E4,6.8595E4,2.5429E4,2.994E3,2.958E3,1.466E3,1.4162E4,4.396E3,1.0982E4,5.7613E4,2.3478E4,1.951E3,9.79E2,2.015E3,1.02E3,1.938E3,4.91E2,9.75E2,1.2697E4,1.465E3,2.998E3,1.398E3,8.017E3,2.965E3,6.524E3,5.1089E4,2.2188E4,1.29E3,6.78E2,1.273E3,3.25E2,6.54E2,6.7E2,1.345E3,6.65E2,3.55E2,6.08E2,1.33E3,3.2E2,1.71E2,6.56E2,3.19E2,1.1683E4,1.014E3,9.79E2,4.86E2,1.994E3,1.004E3,9.29E2,4.69E2,6.543E3,1.474E3,1.957E3,1.008E3,4.493E3,2.031E3,3.806E3,4.7283E4,2.1324E4,8.64E2,3.99E2,8.91E2,2.17E2,4.61E2,4.23E2,8.5E2,1.22E2,2.03E2,4.35E2,2.19E2,2.28E2,4.42E2,4.55E2,8.9E2,2.17E2,4.48E2,2.34E2,1.21E2,3.85E2,2.23E2,8.81E2,4.49E2,1.09E2,2.11E2,6.1E1,1.1E2,4.29E2,2.27E2,1.94E2,1.25E2,1.1016E4,6.67E2,3.42E2,6.72E2,6.4E2,3.39E2,3.16E2,1.7E2,1.316E3,6.78E2,6.7E2,3.34E2,6.08E2,3.21E2,3.08E2,1.61E2,6.049E3,4.94E2,9.63E2,5.11E2,1.317E3,6.4E2,6.46E2,3.62E2,3.502E3,9.91E2,1.347E3,6.84E2,2.556E3,1.25E3,2.346E3,4.4937E4],"tree_param":{"num_deleted":"0","num_feature":"52","num_nodes":"127","size_leaf_vector":"1"}},{"base_weights":[-5.8278987E-5,-8.9055216E-1,3.3732644E-1,-9.985372E-1,-2.1662964E-1,-7.691295E-1,6.403543E-1,-1.0721684E0,-3.4799075E-1,-3.443242E-1,-1.54006E-1,-9.209705E-1,-2.5756767E-1,-6.6700995E-1,8.8554496E-1,-1.1272303E0,-4.0653268E-1,-4.6813387E-1,-2.8801897E-1,-4.1392103E-1,-2.179098E-1,-2.8289196E-1,-8.8214695E-2,-9.978526E-1,-2.635581E-1,-3.2670328E-1,-1.0852543E-1,-8.3418256E-1,-2.1826893E-1,-5.583503E-1,1.0672437E0,-1.1665281E0,-4.621008E-1,-4.6589792E-1,-2.8209558E-1,-5.818097E-1,-4.166604E-1,-4.156029E-1,-2.2949417E-1,-4.780004E-1,-2.8142446E-1,-3.535804E-1,-1.356113E-1,-4.229344E-1,-2.1800958E-1,-1.581195E-1,4.7963727E-2,-1.0552812E0,-3.2983243E-1,-3.245081E-1,-1.4631748E-1,-3.9270645E-1,-1.970361E-1,-1.8845914E-1,5.335945E-2,-9.62095E-1,-2.9775053E-1,-3.045618E-1,-4.651627E-2,-7.407063E-1,-1.4594078E-1,-4.542733E-1,1.1896632E0,-5.96586E-2,-2.4615066E-2,-2.8540045E-2,-2.0410588E-2,-2.6176853E-2,-1.7248278E-2,-1.7717294E-2,-6.6912654E-3,-3.631154E-2,-2.5184168E-2,-2.363356E-2,-1.4342958E-2,-2.6992237E-2,-1.7722016E-2,-1.4487678E-2,-5.415993E-3,-3.074765E-2,-2.0714333E-2,-1.7346388E-2,-6.7906505E-3,-2.6165023E-2,-1.352377E-2,-1.0272164E-2,2.319999E-4,-2.4178624E-2,-1.2539782E-2,-1.8281842E-2,-7.535353E-3,-1.4986411E-2,-4.619937E-3,-1.4800758E-3,9.506444E-3,-5.470405E-2,-1.9713106E-2,-1.9395402E-2,-1.02985455E-2,-1.8880328E-2,-1.01659885E-2,-1.0469883E-2,-5.4578594E-4,-2.2584835E-2,-1.3942157E-2,-1.34442765E-2,-2.1938093E-3,-1.6049933E-2,-5.9890384E-3,-1.514212E-3,1.1126709E-2,-5.1148094E-2,-1.3974923E-2,-1.7833574E-2,-8.6697815E-3,-1.8847805E-2,-8.042781E-3,-5.861665E-3,4.5100725E-3,-4.4170495E-2,-1.20212175E-2,-1.20053915E-2,1.436204E-3,-3.251612E-2,-4.8153363E-3,-1.816215E-2,6.3543335E-2],"categories":[],"categories_nodes":[],"categories_segments":[],"categories_sizes":[],"default_left":[0,0,0,0,0,0,0,0,0,0,0,0,0,0,0,0,0,0,0,0,0,0,0,0,0,0,0,0,0,0,0,0,0,0,0,0,0,0,0,0,0,0,0,0,0,0,0,0,0,0,0,0,0,0,0,0,0,0,0,0,0,0,0,0,0,0,0,0,0,0,0,0,0,0,0,0,0,0,0,0,0,0,0,0,0,0,0,0,0,0,0,0,0,0,0,0,0,0,0,0,0,0,0,0,0,0,0,0,0,0,0,0,0,0,0,0,0,0,0,0,0,0,0,0,0,0,0],"id":12,"left_children":[1,3,5,7,9,11,13,15,17,19,21,23,25,27,29,31,33,35,37,39,41,43,45,47,49,51,53,55,57,59,61,63,65,67,69,71,73,75,77,79,81,83,85,87,89,91,93,95,97,99,101,103,105,107,109,111,113,115,117,119,121,123,125,-1,-1,-1,-1,-1,-1,-1,-1,-1,-1,-1,-1,-1,-1,-1,-1,-1,-1,-1,-1,-1,-1,-1,-1,-1,-1,-1,-1,-1,-1,-1,-1,-1,-1,-1,-1,-1,-1,-1,-1,-1,-1,-1,-1,-1,-1,-1,-1,-1,-1,-1,-1,-1,-1,-1,-1,-1,-1,-1,-1,-1,-1,-1,-1],"loss_changes":[3.6053285E4,2.3993477E3,2.9180184E4,1.3609121E3,3.6371902E1,1.4531592E3,2.1900488E4,9.35209E2,2.0695374E1,1.3089264E1,2.5905594E1,7.2897656E2,4.410742E1,8.092539E2,1.5093816E4,6.157461E2,1.4288483E1,5.3806763E0,1.4323059E1,8.058609E0,5.914419E0,9.293922E0,1.9294144E1,4.9519238E2,1.0756996E1,2.496466E1,1.7595596E1,5.3910596E2,4.3411453E1,4.835376E2,9.51859E3,3.9932812E2,7.4816284E0,9.020386E0,6.7336426E0,2.9852905E0,4.699135E0,4.41362E0,9.650917E0,5.408264E0,2.9764366E0,2.6934853E0,3.2721581E0,3.2815666E0,6.9793587E0,1.2433884E1,7.5922556E0,3.0461914E2,7.286072E0,6.3195267E0,4.430579E0,1.2891266E1,1.0871605E1,8.244915E0,6.3744183E0,2.6341602E2,1.1038727E1,2.0226196E1,9.495148E0,3.18125E2,3.245816E1,2.6703876E2,5.9644297E3,0E0,0E0,0E0,0E0,0E0,0E0,0E0,0E0,0E0,0E0,0E0,0E0,0E0,0E0,0E0,0E0,0E0,0E0,0E0,0E0,0E0,0E0,0E0,0E0,0E0,0E0,0E0,0E0,0E0,0E0,0E0,0E0,0E0,0E0,0E0,0E0,0E0,0E0,0E0,0E0,0E0,0E0,0E0,0E0,0E0,0E0,0E0,0E0,0E0,0E0,0E0,0E0,0E0,0E0,0E0,0E0,0E0,0E0,0E0,0E0,0E0,0E0,0E0,0E0],"parents":[2147483647,0,0,1,1,2,2,3,3,4,4,5,5,6,6,7,7,8,8,9,9,10,10,11,11,12,12,13,13,14,14,15,15,16,16,17,17,18,18,19,19,20,20,21,21,22,22,23,23,24,24,25,25,26,26,27,27,28,28,29,29,30,30,31,31,32,32,33,33,34,34,35,35,36,36,37,37,38,38,39,39,40,40,41,41,42,42,43,43,44,44,45,45,46,46,47,47,48,48,49,49,50,50,51,51,52,52,53,53,54,54,55,55,56,56,57,57,58,58,59,59,60,60,61,61,62,62],"right_children":[2,4,6,8,10,12,14,16,18,20,22,24,26,28,30,32,34,36,38,40,42,44,46,48,50,52,54,56,58,60,62,64,66,68,70,72,74,76,78,80,82,84,86,88,90,92,94,96,98,100,102,104,106,108,110,112,114,116,118,120,122,124,126,-1,-1,-1,-1,-1,-1,-1,-1,-1,-1,-1,-1,-1,-1,-1,-1,-1,-1,-1,-1,-1,-1,-1,-1,-1,-1,-1,-1,-1,-1,-1,-1,-1,-1,-1,-1,-1,-1,-1,-1,-1,-1,-1,-1,-1,-1,-1,-1,-1,-1,-1,-1,-1,-1,-1,-1,-1,-1,-1,-1,-1,-1,-1,-1],"split_conditions":[5E-1,1E0,5E-1,1E0,5E-1,1E0,5E-1,1E0,5E-1,1E0,5E-1,1E0,1E0,1E0,5E-1,1E0,1E0,5E-1,5E-1,1E0,5E-1,5E-1,1E0,1E0,1E0,1E0,1E0,1E0,1E0,1E0,5E-1,1E0,5E-1,1E0,1E0,5E-1,1E0,5E-1,1E0,5E-1,1E0,5E-1,1E0,1E0,5E-1,5E-1,1E0,1E0,1E0,1E0,1E0,1E0,1E0,5E-1,1E0,1E0,1E0,1E0,1E0,1E0,1E0,1E0,5E-1,-5.96586E-2,-2.4615066E-2,-2.8540045E-2,-2.0410588E-2,-2.6176853E-2,-1.7248278E-2,-1.7717294E-2,-6.6912654E-3,-3.631154E-2,-2.5184168E-2,-2.363356E-2,-1.4342958E-2,-2.6992237E-2,-1.7722016E-2,-1.4487678E-2,-5.415993E-3,-3.074765E-2,-2.0714333E-2,-1.7346388E-2,-6.7906505E-3,-2.6165023E-2,-1.352377E-2,-1.0272164E-2,2.319999E-4,-2.4178624E-2,-1.2539782E-2,-1.8281842E-2,-7.535353E-3,-1.4986411E-2,-4.619937E-3,-1.4800758E-3,9.506444E-3,-5.470405E-2,-1.9713106E-2,-1.9395402E-2,-1.02985455E-2,-1.8880328E-2,-1.01659885E-2,-1.0469883E-2,-5.4578594E-4,-2.2584835E-2,-1.3942157E-2,-1.34442765E-2,-2.1938093E-3,-1.6049933E-2,-5.9890384E-3,-1.514212E-3,1.1126709E-2,-5.1148094E-2,-1.3974923E-2,-1.7833574E-2,-8.6697815E-3,-1.8847805E-2,-8.042781E-3,-5.861665E-3,4.5100725E-3,-4.4170495E-2,-1.20212175E-2,-1.20053915E-2,1.436204E-3,-3.251612E-2,-4.8153363E-3,-1.816215E-2,6.3543335E-2],"split_indices":[50,4,9,2,21,50,28,5,48,2,5,5,4,50,24,20,0,16,16,5,48,47,48,7,22,2,5,9,4,50,48,49,0,9,48,5,9,46,47,48,51,16,16,2,16,14,47,51,28,3,4,7,7,28,16,15,4,48,15,9,4,50,22,0,0,0,0,0,0,0,0,0,0,0,0,0,0,0,0,0,0,0,0,0,0,0,0,0,0,0,0,0,0,0,0,0,0,0,0,0,0,0,0,0,0,0,0,0,0,0,0,0,0,0,0,0,0,0,0,0,0,0,0,0,0,0,0],"split_type":[0,0,0,0,0,0,0,0,0,0,0,0,0,0,0,0,0,0,0,0,0,0,0,0,0,0,0,0,0,0,0,0,0,0,0,0,0,0,0,0,0,0,0,0,0,0,0,0,0,0,0,0,0,0,0,0,0,0,0,0,0,0,0,0,0,0,0,0,0,0,0,0,0,0,0,0,0,0,0,0,0,0,0,0,0,0,0,0,0,0,0,0,0,0,0,0,0,0,0,0,0,0,0,0,0,0,0,0,0,0,0,0,0,0,0,0,0,0,0,0,0,0,0,0,0,0,0],"sum_hessian":[1.2E5,3.2972E4,8.7028E4,2.8418E4,4.554E3,1.871E4,6.8318E4,2.5528E4,2.89E3,1.497E3,3.057E3,1.4427E4,4.283E3,1.0789E4,5.7529E4,2.3577E4,1.951E3,9.6E2,1.93E3,9.64E2,5.33E2,1.032E3,2.025E3,1.2916E4,1.511E3,2.925E3,1.358E3,7.86E3,2.929E3,6.43E3,5.1099E4,2.2261E4,1.316E3,1.319E3,6.32E2,2.96E2,6.64E2,6.05E2,1.325E3,6.48E2,3.16E2,2E2,3.33E2,3.25E2,7.07E2,1.338E3,6.87E2,1.1893E4,1.023E3,9.93E2,5.18E2,1.937E3,9.88E2,9.09E2,4.49E2,6.346E3,1.514E3,1.949E3,9.8E2,4.458E3,1.972E3,3.805E3,4.7294E4,2.1414E4,8.47E2,4.33E2,8.83E2,8.91E2,4.28E2,4.24E2,2.08E2,1.01E2,1.95E2,4.62E2,2.02E2,1.97E2,4.08E2,8.84E2,4.41E2,2.03E2,4.45E2,2.17E2,9.9E1,6.4E1,1.36E2,2.22E2,1.11E2,2.39E2,8.6E1,2.2E2,4.87E2,4.23E2,9.15E2,4.45E2,2.42E2,1.1233E4,6.6E2,6.95E2,3.28E2,6.89E2,3.04E2,3.53E2,1.65E2,1.274E3,6.63E2,6.72E2,3.16E2,3.09E2,6E2,3.01E2,1.48E2,5.826E3,5.2E2,1.026E3,4.88E2,1.295E3,6.54E2,6.46E2,3.34E2,3.468E3,9.9E2,1.281E3,6.91E2,2.458E3,1.347E3,2.35E3,4.4944E4],"tree_param":{"num_deleted":"0","num_feature":"52","num_nodes":"127","size_leaf_vector":"1"}},{"base_weights":[-6.331388E-5,-3.285403E-1,8.366354E-1,-5.916429E-1,6.046778E-1,-2.2431058E-1,9.974209E-1,-7.9133856E-1,4.1590363E-1,-2.4477667E-1,8.6085516E-1,-2.854803E-1,-9.833261E-2,-1.85143E-1,1.1287345E0,-9.246307E-1,2.4540707E-1,-3.4467462E-1,6.8515307E-1,-3.65142E-1,-1.8328924E-1,-2.796562E-1,9.917621E-1,-3.496662E-1,-1.4871219E-1,-1.7478408E-1,4.6135858E-2,-2.4894646E-1,-5.490332E-2,-1.1955435E-1,1.2298884E0,-1.0085359E0,9.4005406E-2,-3.8330805E-1,5.102292E-1,-4.0245253E-1,-2.30067E-1,-2.6280198E-1,9.0923136E-1,-4.8717535E-1,-3.0559066E-1,-3.126464E-1,-1.1740917E-1,-3.440392E-1,-1.5097436E-1,-2.3220958E-1,1.0940244E0,-4.092224E-1,-2.3663843E-1,-2.8711945E-1,-8.120663E-2,-2.459531E-1,-3.4555465E-2,-4.9838245E-2,2.1673736E-1,-3.0706814E-1,-1.2674648E-1,-1.2324684E-1,1.0273073E-1,-1.8038581E-1,5.760846E-3,-7.154979E-2,1.3034773E0,-5.304506E-2,-2.7293607E-3,-2.1400062E-2,1.8003631E-2,-2.4783257E-2,-1.6427254E-2,-1.5293938E-2,3.72864E-2,-2.2787772E-2,-1.4855489E-2,-1.4682149E-2,-4.8387162E-3,-2.00637E-2,-9.841335E-3,-1.6049672E-2,5.0742615E-2,-2.9684458E-2,-2.1645552E-2,-2.174646E-2,-1.2232276E-2,-2.241989E-2,-1.2418352E-2,-1.1916154E-2,-2.6066944E-3,-2.2906443E-2,-1.446738E-2,-1.1683085E-2,1.0863792E-4,-1.4942464E-2,-5.0201598E-3,-1.0218213E-2,5.8269925E-2,-2.3272052E-2,-1.418035E-2,-1.5451001E-2,-5.409903E-3,-1.8204411E-2,-6.2955352E-3,-7.1224547E-3,2.4681445E-3,-1.5988525E-2,-5.6421896E-3,-9.211E-3,1.9355901E-3,-7.072841E-3,5.0514983E-3,6.093024E-3,1.9282049E-2,-1.8238978E-2,-9.442438E-3,-9.585236E-3,3.597651E-4,-9.658926E-3,7.351665E-4,3.7223348E-4,1.432792E-2,-1.2052483E-2,-3.0870005E-3,-3.5449117E-3,7.676404E-3,-6.9647753E-3,3.2052677E-3,-9.5317943E-4,6.782077E-2],"categories":[],"categories_nodes":[],"categories_segments":[],"categories_sizes":[],"default_left":[0,0,0,0,0,0,0,0,0,0,0,0,0,0,0,0,0,0,0,0,0,0,0,0,0,0,0,0,0,0,0,0,0,0,0,0,0,0,0,0,0,0,0,0,0,0,0,0,0,0,0,0,0,0,0,0,0,0,0,0,0,0,0,0,0,0,0,0,0,0,0,0,0,0,0,0,0,0,0,0,0,0,0,0,0,0,0,0,0,0,0,0,0,0,0,0,0,0,0,0,0,0,0,0,0,0,0,0,0,0,0,0,0,0,0,0,0,0,0,0,0,0,0,0,0,0,0],"id":13,"left_children":[1,3,5,7,9,11,13,15,17,19,21,23,25,27,29,31,33,35,37,39,41,43,45,47,49,51,53,55,57,59,61,63,65,67,69,71,73,75,77,79,81,83,85,87,89,91,93,95,97,99,101,103,105,107,109,111,113,115,117,119,121,123,125,-1,-1,-1,-1,-1,-1,-1,-1,-1,-1,-1,-1,-1,-1,-1,-1,-1,-1,-1,-1,-1,-1,-1,-1,-1,-1,-1,-1,-1,-1,-1,-1,-1,-1,-1,-1,-1,-1,-1,-1,-1,-1,-1,-1,-1,-1,-1,-1,-1,-1,-1,-1,-1,-1,-1,-1,-1,-1,-1,-1,-1,-1,-1,-1],"loss_changes":[3.2980902E4,2.1158348E4,5.7711035E3,1.3525373E4,4.124375E3,3.4286926E1,4.5622227E3,7.7529688E3,2.2774482E3,3.243808E1,2.174248E3,2.62574E1,1.6100376E1,2.4392044E1,3.3389648E3,4.248832E3,1.0644486E3,1.9163574E1,1.7448123E3,1.0635727E1,2.475396E1,1.237545E1,1.6351729E3,1.3628677E1,8.936871E0,9.50238E0,8.279331E0,1.39600525E1,1.0430409E1,1.5117657E1,2.3426602E3,2.2942227E3,5.2570953E2,1.1497101E1,8.6470984E2,1.0712921E1,8.250889E0,1.4273254E1,8.63501E2,2.5462418E0,7.776146E0,8.448845E0,1.521257E1,6.1009445E0,6.3574963E0,8.823803E0,1.1173926E3,9.28862E0,6.5300446E0,3.8502827E0,5.172704E0,6.173813E0,3.5380263E0,4.492726E0,2.869565E0,9.039307E0,5.5436754E0,6.5146246E0,5.1301165E0,9.593792E0,7.362562E0,1.2047898E1,1.6208945E3,0E0,0E0,0E0,0E0,0E0,0E0,0E0,0E0,0E0,0E0,0E0,0E0,0E0,0E0,0E0,0E0,0E0,0E0,0E0,0E0,0E0,0E0,0E0,0E0,0E0,0E0,0E0,0E0,0E0,0E0,0E0,0E0,0E0,0E0,0E0,0E0,0E0,0E0,0E0,0E0,0E0,0E0,0E0,0E0,0E0,0E0,0E0,0E0,0E0,0E0,0E0,0E0,0E0,0E0,0E0,0E0,0E0,0E0,0E0,0E0,0E0,0E0,0E0,0E0],"parents":[2147483647,0,0,1,1,2,2,3,3,4,4,5,5,6,6,7,7,8,8,9,9,10,10,11,11,12,12,13,13,14,14,15,15,16,16,17,17,18,18,19,19,20,20,21,21,22,22,23,23,24,24,25,25,26,26,27,27,28,28,29,29,30,30,31,31,32,32,33,33,34,34,35,35,36,36,37,37,38,38,39,39,40,40,41,41,42,42,43,43,44,44,45,45,46,46,47,47,48,48,49,49,50,50,51,51,52,52,53,53,54,54,55,55,56,56,57,57,58,58,59,59,60,60,61,61,62,62],"right_children":[2,4,6,8,10,12,14,16,18,20,22,24,26,28,30,32,34,36,38,40,42,44,46,48,50,52,54,56,58,60,62,64,66,68,70,72,74,76,78,80,82,84,86,88,90,92,94,96,98,100,102,104,106,108,110,112,114,116,118,120,122,124,126,-1,-1,-1,-1,-1,-1,-1,-1,-1,-1,-1,-1,-1,-1,-1,-1,-1,-1,-1,-1,-1,-1,-1,-1,-1,-1,-1,-1,-1,-1,-1,-1,-1,-1,-1,-1,-1,-1,-1,-1,-1,-1,-1,-1,-1,-1,-1,-1,-1,-1,-1,-1,-1,-1,-1,-1,-1,-1,-1,-1,-1,-1,-1,-1],"split_conditions":[1E0,1E0,5E-1,1E0,5E-1,1E0,5E-1,1E0,5E-1,5E-1,5E-1,1E0,1E0,1E0,5E-1,1E0,5E-1,1E0,5E-1,5E-1,5E-1,1E0,5E-1,1E0,5E-1,1E0,1E0,1E0,1E0,1E0,5E-1,1E0,5E-1,5E-1,5E-1,1E0,1E0,5E-1,5E-1,5E-1,5E-1,5E-1,5E-1,5E-1,1E0,1E0,5E-1,1E0,1E0,1E0,1E0,1E0,5E-1,1E0,1E0,1E0,1E0,1E0,1E0,1E0,1E0,1E0,5E-1,-5.304506E-2,-2.7293607E-3,-2.1400062E-2,1.8003631E-2,-2.4783257E-2,-1.6427254E-2,-1.5293938E-2,3.72864E-2,